<?xml version="1.0"?>
<opencv_storage>
<ann type_id="opencv-ml-ann-mlp">
  <layer_sizes type_id="opencv-matrix">
    <rows>1</rows>
    <cols>3</cols>
    <dt>i</dt>
    <data>
      140 40 56</data></layer_sizes>
  <activation_function>SIGMOID_SYM</activation_function>
  <f_param1>1.</f_param1>
  <f_param2>1.</f_param2>
  <min_val>-9.4999999999999996e-001</min_val>
  <max_val>9.4999999999999996e-001</max_val>
  <min_val1>-9.7999999999999998e-001</min_val1>
  <max_val1>9.7999999999999998e-001</max_val1>
  <training_params>
    <train_method>RPROP</train_method>
    <dw0>1.0000000000000001e-001</dw0>
    <dw_plus>1.2000000000000000e+000</dw_plus>
    <dw_minus>5.0000000000000000e-001</dw_minus>
    <dw_min>1.1920928955078125e-007</dw_min>
    <dw_max>50.</dw_max>
    <term_criteria><epsilon>1.0000000000000000e-002</epsilon>
      <iterations>1000</iterations></term_criteria></training_params>
  <input_scale>
    7.1981883649572609e+000 -2.2959786334781773e+000
    6.6496266669731279e+000 -2.3077802553314499e+000
    6.3119784674225157e+000 -2.1916162403411938e+000
    5.4115724936689951e+000 -1.9862834581839934e+000
    3.6175167923559055e+000 -1.9211756235671844e+000
    3.3829870942708844e+000 -2.3140427100503667e+000
    3.7692964747770819e+000 -3.0398547232313780e+000
    3.7828377068594867e+000 -3.0742643396745741e+000
    4.9536098675092948e+000 -3.8138053689801734e+000
    5.4857360519042135e+000 -4.1277994878387458e+000
    5.4150186349596732e+000 -4.1560876336377000e+000
    5.1564817405612517e+000 -4.1897927227324088e+000
    5.0394773204454362e+000 -4.3026793501952589e+000
    4.7512882567351653e+000 -3.8429475542879494e+000
    4.4129692158947504e+000 -3.0549285038128637e+000
    4.7328914079589177e+000 -2.3433941575665194e+000
    6.2867038011304706e+000 -2.9310898371837230e-001
    1.1429837552790371e+001 -2.8391178171921116e-001
    1.3769120462666370e+001 -2.8181346995094991e-001
    1.3352887773444845e+001 -2.8477578083352295e-001
    5.7884023221798602e+000 -4.3240399376108050e+000
    6.0385806390142491e+000 -4.8819805757384813e+000
    6.0065936119759078e+000 -4.9016764282320935e+000
    6.0100823775296854e+000 -4.6540755562095724e+000
    6.2192580378019056e+000 -4.5481415203331803e+000
    6.3668634851660677e+000 -4.6080866345114151e+000
    6.3829550488913442e+000 -4.6340098450414589e+000
    6.4113808244246746e+000 -4.6883715743727636e+000
    5.6296035204194288e+000 -4.1985378534314615e+000
    5.4389055808629623e+000 -4.1981747540940990e+000
    5.4585306306204524e+000 -4.1733322097225818e+000
    5.5251364878396316e+000 -4.0212595948261862e+000
    5.7473015865017132e+000 -4.0081445496544150e+000
    5.8294358131057118e+000 -4.0764894749604537e+000
    5.8132994988255327e+000 -4.1515521385919216e+000
    5.7321826389410919e+000 -4.0761101900219749e+000
    5.2338280372903769e+000 -3.8810865173598925e+000
    5.0985602007839574e+000 -3.9661459991456294e+000
    5.1199765709713363e+000 -3.9145331141948545e+000
    5.3179553641172141e+000 -3.8467942760655363e+000
    1.8250684551647260e+000 -1.2863892832842165e+000
    1.0169362285883329e-001 -2.2170101546360554e-001
    1.4467945667986089e-002 -6.8890691393820447e-001
    1.0687083503133828e-002 -1.4577257328443636e+000
    1.0038860724964120e-002 -1.5876751855224829e+000
    1.1132441231581736e-002 -1.9336875414566954e+000
    1.1563742649275704e-002 -1.6666938152787580e+000
    1.6077735731660010e-002 -6.3721890177023233e-001
    1.1596774445588399e-001 -1.1908055633252039e-001
    4.6003706711352486e+000 -2.0268984242409607e-001
    1.7631737023082967e+000 -1.4279236923944745e+000
    6.5384769800953535e-002 -2.3565367466920500e-001
    1.2144527144671192e-002 -9.2289185238360316e-001
    1.0491149751546858e-002 -1.7757519099514827e+000
    1.2141572380057617e-002 -1.4667736165721705e+000
    1.1838658586567808e-002 -1.6367455073523951e+000
    1.0725162654159600e-002 -1.8673516353063073e+000
    1.3577264290795272e-002 -8.7855397621676656e-001
    9.4025366599490026e-002 -1.4794088533614552e-001
    4.3299565177273811e+000 -1.9123858858105103e-001
    1.7662054671453933e+000 -1.4099800890001455e+000
    5.5520349513475703e-002 -2.3218086490476603e-001
    1.1119242299860872e-002 -8.9128735598981035e-001
    1.0433254400702863e-002 -1.4908240222304301e+000
    1.0574001741292714e-002 -7.8669962329515697e-001
    1.0117435726233944e-002 -8.3586940999532733e-001
    1.0091063037933811e-002 -1.3749982566878056e+000
    1.1984049216670027e-002 -8.1667751844492131e-001
    6.9595466387132127e-002 -1.6486779717760142e-001
    4.4439409209026746e+000 -2.0292618684904737e-001
    1.8078094044615254e+000 -1.2817641270003115e+000
    5.6001274751506437e-002 -2.2855658748973282e-001
    1.1120937083232179e-002 -8.8461815728226123e-001
    1.0290565391693813e-002 -1.5405706007968640e+000
    1.0264654878515798e-002 -1.0064817382992988e+000
    1.0328254380569470e-002 -1.0466395197100089e+000
    1.0069224543288739e-002 -1.2725557262447893e+000
    1.2361087434467675e-002 -7.2475550053691828e-001
    7.4133491800020296e-002 -1.5541792035585475e-001
    4.7398513641077340e+000 -2.1238345862059035e-001
    1.7597510821761093e+000 -1.0858479033425463e+000
    6.5784075236962475e-002 -2.1440501133535506e-001
    1.1600023047925064e-002 -8.2342176223500241e-001
    9.9320553455409556e-003 -1.5944491060860198e+000
    1.0229834265827253e-002 -1.5785309259631830e+000
    1.1363532800804531e-002 -1.9626513950025626e+000
    1.1355608510667534e-002 -1.8389200288376959e+000
    1.3385394561691825e-002 -6.9253348943809523e-001
    8.7228217006991654e-002 -1.3560438355583762e-001
    4.5192732765278345e+000 -1.9911673510100181e-001
    1.7063707240997734e+000 -1.1899522502250692e+000
    6.5241319781151441e-002 -2.1571985523616954e-001
    1.1812873124310801e-002 -7.5973790487145887e-001
    1.0167489944748250e-002 -1.4319187822625723e+000
    1.1245277415257894e-002 -1.2953583091599510e+000
    1.0669954459584295e-002 -1.5192413116862187e+000
    1.0942498271644733e-002 -1.8256348969173279e+000
    1.2837458246826519e-002 -7.9225005531882953e-001
    8.3115273782073368e-002 -1.5192025018534894e-001
    3.8409399369138630e+000 -1.9921461548531957e-001
    1.7305565229600999e+000 -1.2101496207503040e+000
    5.9720967044420134e-002 -2.2529959944669115e-001
    1.1220179065340081e-002 -8.1913066652922439e-001
    9.7742486790977166e-003 -1.2354520717842221e+000
    1.1966853824012552e-002 -7.5185268837799912e-001
    1.0596302687397937e-002 -9.0837204231275370e-001
    1.0270094274232625e-002 -1.4969230768910382e+000
    1.1733994027079087e-002 -8.5277312938451744e-001
    6.2151357000354311e-002 -1.7784021594037860e-001
    3.5508693973917498e+000 -1.6973998723496012e-001
    1.3101268127610359e+000 -8.3572948755422716e-001
    5.5658864379010610e-002 -2.3736115856124318e-001
    1.1176587516938745e-002 -9.8889671841403148e-001
    1.0759866987141617e-002 -1.6208702291769002e+000
    1.1274510516097621e-002 -8.1983692568702293e-001
    9.7299729183248172e-003 -8.7995436076803002e-001
    1.0008093364351470e-002 -1.4415015091994110e+000
    1.1667158474984824e-002 -8.7245666065046135e-001
    6.4557317711320936e-002 -1.7984366660035400e-001
    4.1662783885634749e+000 -1.7910853515158986e-001
    7.4060288834902421e-001 -5.0054649282064301e-001
    6.9906163194960153e-002 -2.2568678865283412e-001
    1.2071019923048267e-002 -9.8632276682745046e-001
    1.0663261340670881e-002 -1.8608594091627075e+000
    1.2423904240967558e-002 -1.5078867732111079e+000
    1.2760061217276563e-002 -1.6175653007514639e+000
    9.5394122832627905e-003 -1.5183539047137655e+000
    1.3949884329787851e-002 -8.3016058516098201e-001
    8.8175763228687629e-002 -1.4271630589949602e-001
    4.8892207861859456e+000 -1.5842518428128985e-001
    1.5903179437164661e+000 -1.1615732601415318e+000
    9.6375294105966472e-002 -2.0099572084852507e-001
    1.4771504291988962e-002 -6.6055210049508284e-001
    1.1359589276637556e-002 -1.4869096178213306e+000
    1.0106266388129507e-002 -1.6009705019422873e+000
    9.8870115109596975e-003 -1.4425753524954614e+000
    1.1104690850025956e-002 -1.2903102124037218e+000
    1.6653809209820118e-002 -5.6142446797848944e-001
    1.1736058670539752e-001 -1.1439864697034524e-001
    4.6456121998574167e+000 -1.6444205305879636e-001</input_scale>
  <output_scale>
    5.2631578947368418e-001 4.9999999999999994e-001
    5.2631578947368418e-001 4.9999999999999994e-001
    5.2631578947368418e-001 4.9999999999999994e-001
    5.2631578947368418e-001 4.9999999999999994e-001
    5.2631578947368418e-001 4.9999999999999994e-001
    5.2631578947368418e-001 4.9999999999999994e-001
    5.2631578947368418e-001 4.9999999999999994e-001
    5.2631578947368418e-001 4.9999999999999994e-001
    5.2631578947368418e-001 4.9999999999999994e-001
    5.2631578947368418e-001 4.9999999999999994e-001
    5.2631578947368418e-001 4.9999999999999994e-001
    5.2631578947368418e-001 4.9999999999999994e-001
    5.2631578947368418e-001 4.9999999999999994e-001
    5.2631578947368418e-001 4.9999999999999994e-001
    5.2631578947368418e-001 4.9999999999999994e-001
    5.2631578947368418e-001 4.9999999999999994e-001
    5.2631578947368418e-001 4.9999999999999994e-001
    5.2631578947368418e-001 4.9999999999999994e-001
    5.2631578947368418e-001 4.9999999999999994e-001
    5.2631578947368418e-001 4.9999999999999994e-001
    5.2631578947368418e-001 4.9999999999999994e-001
    5.2631578947368418e-001 4.9999999999999994e-001
    5.2631578947368418e-001 4.9999999999999994e-001
    5.2631578947368418e-001 4.9999999999999994e-001
    5.2631578947368418e-001 4.9999999999999994e-001
    5.2631578947368418e-001 4.9999999999999994e-001
    5.2631578947368418e-001 4.9999999999999994e-001
    5.2631578947368418e-001 4.9999999999999994e-001
    5.2631578947368418e-001 4.9999999999999994e-001
    5.2631578947368418e-001 4.9999999999999994e-001
    5.2631578947368418e-001 4.9999999999999994e-001
    5.2631578947368418e-001 4.9999999999999994e-001
    5.2631578947368418e-001 4.9999999999999994e-001
    5.2631578947368418e-001 4.9999999999999994e-001
    5.2631578947368418e-001 4.9999999999999994e-001
    5.2631578947368418e-001 4.9999999999999994e-001
    5.2631578947368418e-001 4.9999999999999994e-001
    5.2631578947368418e-001 4.9999999999999994e-001
    5.2631578947368418e-001 4.9999999999999994e-001
    5.2631578947368418e-001 4.9999999999999994e-001
    5.2631578947368418e-001 4.9999999999999994e-001
    5.2631578947368418e-001 4.9999999999999994e-001
    5.2631578947368418e-001 4.9999999999999994e-001
    5.2631578947368418e-001 4.9999999999999994e-001
    5.2631578947368418e-001 4.9999999999999994e-001
    5.2631578947368418e-001 4.9999999999999994e-001
    5.2631578947368418e-001 4.9999999999999994e-001
    5.2631578947368418e-001 4.9999999999999994e-001
    5.2631578947368418e-001 4.9999999999999994e-001
    5.2631578947368418e-001 4.9999999999999994e-001
    5.2631578947368418e-001 4.9999999999999994e-001
    5.2631578947368418e-001 4.9999999999999994e-001
    5.2631578947368418e-001 4.9999999999999994e-001
    5.2631578947368418e-001 4.9999999999999994e-001
    5.2631578947368418e-001 4.9999999999999994e-001
    5.2631578947368418e-001 4.9999999999999994e-001</output_scale>
  <inv_output_scale>
    1.8999999999999999e+000 -9.4999999999999996e-001
    1.8999999999999999e+000 -9.4999999999999996e-001
    1.8999999999999999e+000 -9.4999999999999996e-001
    1.8999999999999999e+000 -9.4999999999999996e-001
    1.8999999999999999e+000 -9.4999999999999996e-001
    1.8999999999999999e+000 -9.4999999999999996e-001
    1.8999999999999999e+000 -9.4999999999999996e-001
    1.8999999999999999e+000 -9.4999999999999996e-001
    1.8999999999999999e+000 -9.4999999999999996e-001
    1.8999999999999999e+000 -9.4999999999999996e-001
    1.8999999999999999e+000 -9.4999999999999996e-001
    1.8999999999999999e+000 -9.4999999999999996e-001
    1.8999999999999999e+000 -9.4999999999999996e-001
    1.8999999999999999e+000 -9.4999999999999996e-001
    1.8999999999999999e+000 -9.4999999999999996e-001
    1.8999999999999999e+000 -9.4999999999999996e-001
    1.8999999999999999e+000 -9.4999999999999996e-001
    1.8999999999999999e+000 -9.4999999999999996e-001
    1.8999999999999999e+000 -9.4999999999999996e-001
    1.8999999999999999e+000 -9.4999999999999996e-001
    1.8999999999999999e+000 -9.4999999999999996e-001
    1.8999999999999999e+000 -9.4999999999999996e-001
    1.8999999999999999e+000 -9.4999999999999996e-001
    1.8999999999999999e+000 -9.4999999999999996e-001
    1.8999999999999999e+000 -9.4999999999999996e-001
    1.8999999999999999e+000 -9.4999999999999996e-001
    1.8999999999999999e+000 -9.4999999999999996e-001
    1.8999999999999999e+000 -9.4999999999999996e-001
    1.8999999999999999e+000 -9.4999999999999996e-001
    1.8999999999999999e+000 -9.4999999999999996e-001
    1.8999999999999999e+000 -9.4999999999999996e-001
    1.8999999999999999e+000 -9.4999999999999996e-001
    1.8999999999999999e+000 -9.4999999999999996e-001
    1.8999999999999999e+000 -9.4999999999999996e-001
    1.8999999999999999e+000 -9.4999999999999996e-001
    1.8999999999999999e+000 -9.4999999999999996e-001
    1.8999999999999999e+000 -9.4999999999999996e-001
    1.8999999999999999e+000 -9.4999999999999996e-001
    1.8999999999999999e+000 -9.4999999999999996e-001
    1.8999999999999999e+000 -9.4999999999999996e-001
    1.8999999999999999e+000 -9.4999999999999996e-001
    1.8999999999999999e+000 -9.4999999999999996e-001
    1.8999999999999999e+000 -9.4999999999999996e-001
    1.8999999999999999e+000 -9.4999999999999996e-001
    1.8999999999999999e+000 -9.4999999999999996e-001
    1.8999999999999999e+000 -9.4999999999999996e-001
    1.8999999999999999e+000 -9.4999999999999996e-001
    1.8999999999999999e+000 -9.4999999999999996e-001
    1.8999999999999999e+000 -9.4999999999999996e-001
    1.8999999999999999e+000 -9.4999999999999996e-001
    1.8999999999999999e+000 -9.4999999999999996e-001
    1.8999999999999999e+000 -9.4999999999999996e-001
    1.8999999999999999e+000 -9.4999999999999996e-001
    1.8999999999999999e+000 -9.4999999999999996e-001
    1.8999999999999999e+000 -9.4999999999999996e-001
    1.8999999999999999e+000 -9.4999999999999996e-001</inv_output_scale>
  <weights>
    <_>
      -4.6015593679934630e-002 1.5221179295655243e-001
      -8.8900426138111110e-002 1.6552173822480393e-001
      -6.1004329049293093e-001 2.9355376469202671e-001
      -8.3671553739037716e-002 -6.7556602181261402e-002
      8.4142693930799692e-002 1.5244135376180676e-002
      -1.8472751586819106e-001 5.4026569041126314e-002
      -1.5401690266317689e-001 -2.4451056863271323e-001
      -1.5422259044860204e-001 -1.0952879695824952e-001
      -6.0898441399355754e-002 1.2976633471635868e-001
      8.7561949540717714e-003 -8.9388837264918683e-003
      -1.6194044671622532e-001 1.4247967591331381e-001
      -1.3853959728588529e-002 -1.4702304262354746e-001
      5.7541039271766126e-002 -3.1386970382801516e-001
      2.8435714985958559e-002 -2.7858509589094377e-001
      -1.4311834594533218e-001 -1.2911719485224513e-001
      -1.6948391618254843e-002 8.2511283165627808e-002
      2.5376008389609050e-001 -1.0172226263752546e-001
      -5.4830258359465874e-002 4.7457691718486454e-002
      1.0912718897750771e-001 -2.3452144689500212e-001
      -6.5365418366542652e-002 -7.3984269614468350e-003
      -5.0271044399925649e-002 1.2846072172608822e-001
      -5.5892132943208793e-003 1.4062436055592861e-001
      -1.2914538214070370e-001 5.9513042799392668e-001
      -2.9455695392560648e-002 -6.9866954437148410e-002
      4.5933511961278838e-002 -1.7718906813029341e-002
      -3.0218398209824976e-001 5.1227191128592711e-002
      8.8044887098691862e-002 -4.2084652306956022e-001
      -1.7232887170630645e-001 3.0181371782635048e-003
      7.9120303988817878e-002 -5.4796603208733467e-002
      -1.8041277471259765e-001 1.6723737883116478e-002
      -1.3181284702575891e-001 1.4158543745006141e-001
      4.8893376967658608e-002 -1.6702629819585252e-001
      -2.8604260949325488e-001 -1.4469301720627471e-002
      4.6316450307931079e-002 -1.2576912447025251e-001
      -1.4386542143285855e-001 -6.8286411622732676e-002
      -4.0082247747345999e-002 1.0600016521092723e-001
      2.5005096067752253e-001 7.8104484988574044e-002
      -4.4210126780625719e-001 -1.0179286426676783e-001
      1.3194484318332139e-001 -3.5652534787590576e-002
      -1.4075864049919357e-001 5.6967983600231961e-002
      -3.4948597334960266e-002 9.9063957894813412e-002
      -9.3751134877426562e-002 1.5875134867483176e-001
      -2.7723941996411366e-001 3.2274332778125447e-001
      9.6833948134347869e-002 -2.3609636518454723e-002
      1.7750115564797714e-001 5.3173047374140373e-002
      -9.9998139586655432e-002 -7.1448212821339077e-002
      -1.4078696181172384e-001 1.0759529803312037e-001
      -1.0553900667274717e-001 7.3514760138387574e-003
      8.0380845988211519e-002 1.4526059924985546e-001
      3.0028236893926308e-002 -8.4453562405507818e-003
      -2.2674821389675151e-001 4.4849652270628343e-002
      2.4043643684355010e-002 1.1379107874719042e-001
      2.2256042023057621e-001 -1.9470683431622393e-001
      2.8188563897697035e-002 -1.5357220103174954e-001
      -1.3106199971345220e-001 -9.9771791435918702e-002
      1.1223914757813548e-002 1.8998579604529511e-001
      3.2639382012904461e-001 6.8729129912528053e-002
      -2.8133364877929767e-001 -5.3817052082897068e-002
      5.4946879891786371e-002 -1.1366286574256210e-001
      -7.6372708126812364e-002 3.8621890367186253e-002
      1.2654096279336777e-001 1.2228026368727116e-001
      -1.6168913383439640e-001 9.8554020783170979e-002
      1.2246650014154068e-002 2.8933347008012678e-001
      1.9594836430397072e-001 3.0710006704678258e-002
      1.0637482410829029e-001 -4.8179049525716895e-003
      -4.2602612632860479e-003 -8.5137738229960042e-002
      6.3400078467138271e-002 1.8724652660625923e-001
      5.2163748719368117e-002 -8.9075702888698940e-002
      -2.1624302417840033e-001 1.6836633842140597e-001
      -5.0750242628864753e-002 7.3732753399898144e-003
      -2.6024546627371098e-001 -1.0529172095303076e-001
      1.0495868452262402e-001 -2.4349575048315777e-001
      6.0312321745338959e-002 -4.0821079211686934e-001
      -6.4028582346652638e-002 2.1437890510954655e-001
      2.4838432214015127e-001 -1.2252276766576407e-001
      5.7084992427487227e-002 1.5899027506347790e-002
      -1.3982733278041448e-001 1.0215619613893971e-001
      -1.2019629539723453e-001 1.4095626385543980e-001
      1.2993260165809420e-001 1.4244844295746203e-001
      6.2876686384348748e-002 3.6702665780155325e-001
      -3.0823158357517638e-001 -2.3831028554480529e-001
      -2.7563651893344240e-002 -7.0982073930702952e-002
      1.6150436692367282e-001 4.8196361383616360e-001
      7.9729158875731648e-002 1.8733195982704168e-001
      -2.4392718730696650e-002 8.9044083603493807e-002
      -6.8277918422708661e-001 -3.8979472742931981e-002
      3.4691917629510866e-001 8.8853777335241552e-002
      -8.8945388414692420e-002 6.6502082450772743e-002
      9.6782095717372632e-002 -6.6161821553323313e-002
      -1.0643938987597011e-001 -1.3573670565436174e-001
      2.0960321282879846e-001 -3.2523945517541394e-003
      2.3650194042658587e-001 2.8073171249801215e-001
      1.0073176633705726e-001 -5.5884788278281888e-002
      4.9388447812647576e-002 1.2610717616964648e-001
      6.8501564758343703e-001 -1.0657587335626169e-001
      4.6149128511647985e-002 -8.4579233612836729e-002
      -6.0333865038127814e-002 -4.9917324258170956e-002
      7.9249626705443166e-002 1.0630854227616686e-001
      -1.7461649672524526e-001 -9.1797963382489717e-002
      -8.2828347984649095e-002 9.1093184961497098e-002
      5.7999463285711698e-002 -1.9385861016048742e-001
      -8.7140644260673750e-002 1.5801093237807004e-001
      -4.2852963657789164e-002 3.8162254837432158e-001
      -6.3823582586414684e-002 3.6322295111529540e-001
      -7.4614979147041988e-002 9.6795403101926275e-002
      -3.4038516104946084e-002 1.1384026605964459e-001
      5.3440949418450401e-002 2.0256617463288976e-001
      -2.8219370976794017e-001 -1.1157155270213177e-001
      8.3749706916551953e-002 3.0742302750706711e-002
      -1.3167212743409637e-001 1.1571815988597224e-001
      -1.1618236348123178e-002 1.0643091273411324e-001
      3.9739524101075931e-002 -2.9206961186281702e-002
      3.6700000080527906e-001 1.6757913294874419e-001
      -7.9427856826679133e-002 -1.3710100047591697e-002
      9.0316321611088504e-002 -1.1930937399136761e-001
      3.4079950175133392e-002 5.0685805623872692e-003
      -9.1659619679525448e-002 8.6583714080567687e-003
      1.2040441641390229e-001 8.8271541210391630e-002
      3.0956758101419866e-002 8.0380048217229536e-002
      -3.0517516156470054e-001 -1.4793787746569304e-002
      -4.6399779912274668e-002 -1.5060349208295101e-001
      -1.7173699710211918e-002 6.8446780076974842e-002
      6.0293179071934599e-002 5.7561205783181191e-001
      3.3949085102639170e-001 1.1491708638170017e-001
      -1.3163582920627812e-001 8.9190729611195674e-002
      -9.4338333653243386e-002 9.8193652067677772e-002
      2.9768972782931230e-001 8.7930864038120657e-002
      -1.8822428030910535e-001 -1.5452978201932938e-002
      1.1273102041778407e-001 5.2999943851035118e-002
      1.6566708824555240e-001 -3.7549815078599891e-001
      2.9206389579058200e-002 -2.3756967160351191e-002
      -8.7698012667751014e-004 7.3423435051260899e-001
      1.9543831646328721e-001 1.7377133747239809e-001
      -7.8781045297495911e-002 -9.6404340271567590e-001
      6.9391840827882120e-002 -2.0124832818263283e-001
      -6.4923009741337852e-003 -2.4195327600606328e-001
      -3.2287038912504862e-001 1.3182877002511506e-001
      8.1192947398334869e-001 4.4187137747812461e-001
      4.6450051504248288e-002 8.6097670785731342e-002
      -2.0246658121001695e-001 1.4918249262092378e-001
      -2.4325831465736882e-002 1.2097321136507168e-001
      -1.4695221773124711e-001 -9.5177725723037232e-002
      1.2310577466141198e-002 1.0107216738604732e+000
      3.5419201637401809e-001 -1.6077335882839133e-001
      4.3807612571367915e-001 3.7298803299407150e-002
      -8.3860236087137843e-002 1.4800964185163384e-001
      2.2758951434193081e-001 -1.9639839513723520e-001
      -1.7137231699928812e-001 4.4250415956572309e-002
      7.9191699843480234e-002 9.1143946991814773e-001
      5.3983327338274684e-002 -3.3880476330591391e-001
      1.0531443836912147e-001 -7.6714687564789280e-003
      -3.7600849003526352e-002 7.6031458901386073e-001
      2.6846480823344798e-001 1.3121479491226529e-001
      -1.2806393961295355e-002 -1.5621211819793515e+000
      -1.3901783910699272e-001 -4.9911157032394911e-002
      -2.7952342441483650e-002 4.3638554943535252e-001
      3.5975126853012673e-001 1.2105356238702858e-001
      7.7920419038262106e-002 2.8422600877775955e-001
      4.8210550597091423e-002 4.1212472456824606e-002
      -1.6444944894181038e-001 8.6364136733202992e-002
      -6.1915668763826856e-002 1.0489245273674264e-001
      1.2783962766654350e-001 4.0254872807901571e-001
      -5.3411002212769665e-001 4.8379646315478742e-001
      1.7259764729771022e-002 -1.1924555094267235e+000
      2.2055782111192068e-001 9.2853817699124860e-002
      -5.9259292774117278e-001 -1.1217800885011561e-001
      1.8446795883357094e-002 2.5690662791812674e-001
      -1.5758028859824835e-001 -8.4386780762059341e-002
      1.0662455305379677e-001 1.1165423873032707e-001
      -5.2933270969725943e-002 5.4552742257191388e-002
      -7.7854699380232623e-002 1.5864722534408632e-001
      -4.4337749922286651e-001 1.0878332374881469e-001
      1.7138481415622506e-001 1.5425919181267728e-001
      2.3509643090739960e-001 -2.4475731990979813e-002
      -7.8908179005489340e-002 3.2383503715869916e-001
      -1.7920657884370178e-001 -2.5391515980421435e-002
      1.1012219502748065e-001 -1.5872646493092779e-001
      2.4496119312099848e-001 2.7433170923453157e-002
      -1.0528838005277315e-002 -2.5672883619377984e-001
      -8.8182778382808150e-002 3.2733481194946019e-002
      4.7097650417851078e-002 -2.2964654900304488e-002
      7.9116234885644732e-002 -4.1018558202030849e-003
      1.7203510769200267e-001 -7.5802589397781617e-002
      8.6224378531447710e-002 1.5062764995915112e-001
      2.1044470062282661e-001 1.1074550484285427e-003
      1.9486165436568900e-001 -4.2944656323247532e-001
      1.1247481372729949e-001 -4.7418712486007053e-001
      -1.3111890373510446e-001 1.8002247661248827e-001
      2.6490093700997158e-001 -1.6955723112687127e-001
      -5.2267489762434130e-002 2.8789160432574279e-001
      -1.9187055241833664e-001 5.5153471058273229e-001
      2.2823838074934316e-001 -3.8807851295129342e-002
      1.9602619822322376e-001 -4.6881121218553161e-003
      6.3492229690219990e-002 1.5498013591390628e-001
      5.9739697906605063e-002 4.3569954506418357e-001
      -6.4998083217231939e-002 3.0852229790332315e-002
      1.2221523456462310e-001 2.3877165544510026e-002
      3.8248881701833951e-002 -1.5743166762577218e-001
      2.2898750917013752e-002 2.8489291407021855e-001
      -7.0398629580261829e-002 2.3299580330629091e-001
      3.7746641090283015e-002 -6.5601016098090865e-003
      5.7877040228493423e-002 -5.2747139366489941e-002
      -2.4584545195124777e-001 -7.4039351037229181e-002
      8.3384649573242875e-002 3.3470872515559130e-001
      1.1171440582991006e-001 5.2840553453789921e-002
      1.9663741789306780e-001 -3.4384793012667059e-001
      -8.1408342957050669e-002 -1.0638777277323983e+000
      -1.0440780970448596e-001 1.8914340907220925e-001
      -2.5852740237161432e-002 -8.2369354193175301e-002
      -4.0476207975324911e-002 1.4536911816379930e-001
      -1.6232774227074490e-001 5.5614485645042200e-001
      2.7394193378562831e-002 7.1764536955252645e-002
      1.9926183272394632e-001 -3.3455561064466394e-001
      1.3536432863834549e-001 1.5353600318262836e-001
      5.9254233180848562e-002 1.7190288380826127e-001
      -8.4793603415787330e-002 -4.3132196797848674e-002
      4.8979655659638538e-001 -1.2444322744611934e-001
      -1.3141184217774016e-001 -2.9132979000617293e-001
      -3.7015883482481232e-001 7.6073532700040497e-002
      3.0479037508550247e-003 3.2154515163860625e-001
      3.8353241689224500e-002 -3.0830457244731380e-002
      1.7900835227569384e-001 1.1679404756555342e-001
      -5.2868999311083603e-002 5.9991134149566583e-002
      3.6490983877621236e-001 -2.7441665456472475e-001
      -3.8924168338080253e-002 9.4872242323141134e-002
      5.7136258469707857e-001 7.9231128639882659e-003
      -3.0022495874280730e-001 -8.1000673326642555e-002
      2.1684278368095028e-001 2.4250610316672849e-001
      9.9025430421881402e-002 4.9584689844024074e-002
      3.9659724117127218e-002 2.6824576876624519e-002
      -1.3952973380309772e-001 2.1970147423382572e-001
      1.7440702596577995e-001 -1.4780672667130179e-001
      -1.6851027905357807e-002 2.7572753989771193e-001
      3.7616363262236346e-001 -1.1298863984592851e-002
      -1.9778742797732785e-001 -2.7537357285688763e-002
      -1.2884281022929589e-001 -2.2786499417240644e-001
      2.5221514687795536e-002 2.4188002817927329e-001
      3.0823305921272504e-001 7.0586109623412752e-001
      -1.1278894894193977e-002 -2.7588701578814059e-002
      1.0923590848736868e-001 1.0882250155367989e-002
      1.3172663146644201e-001 1.5298238832850819e-001
      4.0698659449090568e-002 -4.8615330084959212e-002
      2.1815825866439917e-001 1.1315962942258233e-001
      2.9736227884389127e-001 -1.6023433495466341e-001
      -1.8166045618483437e-001 2.6150714021532018e-002
      -6.3189184241370114e-002 -2.9321637513127261e-002
      -3.9021171259248960e-001 -7.6677194187630179e-002
      -1.6558047617499247e-001 8.0934679385574929e-002
      9.0423296727878716e-002 -5.2443141956939297e-002
      9.2065710534641479e-002 -2.3844018498256730e-001
      -4.0382593299750372e-002 1.6859743971972052e-001
      -5.3578088725994184e-002 -9.7259264641502433e-002
      2.7512086644094458e-001 2.9187144051766944e-001
      2.0062362251602175e-003 -3.3895231006328497e-001
      -1.3843329057694792e-001 1.3168898154781752e-001
      -1.2920148071276311e-001 -5.3528446213008907e-001
      1.3945592836013948e-001 6.3190635625554534e-002
      2.4301444749804071e-001 1.8186781173128019e-001
      -1.0116239431939472e-001 3.6567732433802819e-002
      -1.5672234967598964e-003 -6.2190347728001326e-002
      2.2667399771405111e-001 -1.3776601469314984e-001
      3.8102959964292987e-001 -1.4277730339557419e-002
      3.0663485486716902e-001 1.1076603424744584e-001
      1.8902895483421198e-001 3.9623146440670297e-002
      -5.7894808318128876e-001 1.0483685883233111e-001
      -3.0483743190757109e-002 1.2938600214004181e-001
      -1.0035898688753396e-001 5.9486902956250171e-002
      -3.7208117703574922e-001 3.1003770151978638e-002
      8.2407352036184794e-002 1.2819142865082372e-001
      -1.6493349051958028e-001 -3.2470354418779296e-002
      -1.9965162356335561e-001 -6.9961767706817571e-002
      -8.2072149286146742e-002 -1.2098620939966132e-001
      1.4238498398112256e-001 2.4496262155485884e-001
      -2.0694027694226853e-002 -4.5923701293788216e-001
      2.2717292477185468e-002 -5.6813199838622562e-002
      -1.2579332678009769e-001 -3.0281933887165874e-001
      1.8203429025279225e-001 4.3333231290471792e-002
      7.4884655769230091e-001 -1.1683282808682684e-001
      7.9700926469086733e-002 1.9698407858485917e-001
      -8.2596454470095712e-002 3.9592852497312946e-002
      1.9397780675654594e-001 -2.2773286341712817e-001
      -1.4122681361806850e-002 -1.0359815573411353e-004
      8.7674761785869054e-003 1.3150710857247117e-001
      -6.1721195987298879e-003 9.5755669621797421e-002
      -1.0217648201257767e-001 8.0307098359854043e-002
      -3.5281115513532052e-002 1.5968840014005090e-001
      -7.1716589349304929e-002 -3.8931801419692008e-001
      2.0631978316696713e-002 -2.1589061924251286e-002
      2.4117606174592767e-002 -1.7477908174249035e-001
      -4.2136261503004507e-001 7.8175746249034242e-002
      4.5781612322320503e-002 7.2081687663021615e-002
      4.8653095217845957e-002 1.6501231995312690e-001
      1.4554204288240205e-001 1.8970695569845494e-001
      -3.0542521857377330e-001 1.6864183276925218e-001
      1.7712254227845547e-001 -3.5590766141609720e-002
      2.0742777403487348e-002 -2.3683106256026984e-001
      4.7781195141520377e-001 1.3533630315626060e-002
      2.2268002534813114e-001 -9.0204380184904870e-002
      4.9436497725273629e-002 5.9935841110532996e-002
      -1.9036363072501203e-001 1.4489613624695219e-001
      8.3649963483512876e-002 -1.5333870142212988e-001
      -4.4038022054005213e-002 8.6481773618936927e-002
      2.8989058804863539e-002 1.0131724406597577e-001
      -6.7885356658755796e-003 -4.1195133384153470e-003
      -2.3947477355427751e-002 9.8362288998658010e-002
      -6.9391525339495649e-002 4.3034141615900429e-001
      4.2198505673114364e-003 -7.2200804118812092e-002
      -1.2518901721708639e-001 -1.3719172739200813e-001
      1.6479567697723116e-001 -2.6504341536116643e-001
      2.4754255944297265e-002 -2.9770432994884199e-001
      8.8499674869021688e-002 -4.5493881829211838e-002
      3.6792658612697382e-001 1.0887167696774584e-001
      -5.7223451100826946e-002 6.8793156484611446e-003
      -2.8244597078409212e-001 2.1473037175678031e-001
      3.1511364019999744e-001 -5.2559284044911871e-002
      -9.2231732371504269e-002 -8.2619034051442414e-002
      4.1996733764539912e-002 2.2118122154930789e-001
      3.6181186408500887e-001 -1.5682564697225820e-001
      2.3203982359205072e-001 4.3592708860964051e-002
      -7.5233650409087471e-002 -3.0777775867798004e-003
      1.6116158792785215e-001 -2.0520788770940881e-001
      -5.2660699179361314e-001 1.1505852583316759e-001
      -4.5018912830317315e-001 1.1451369175701211e-001
      2.4003187831802691e-001 -6.2915834259448378e-001
      -2.6489428599524807e-002 -6.9384911087103540e-002
      -4.5614341577743461e-001 5.6010301233951298e-001
      4.5873873561616971e-002 -4.7564482379211112e-002
      -2.6194573669395843e-001 -3.0481269489582387e-002
      -3.0367943549324722e-001 6.6363468717986474e-001
      -1.9001378891556694e-001 -8.7178355417846631e-002
      5.7744779767706456e-001 -4.7477652889679325e-002
      -3.0457558538137053e-001 5.0145903165814576e-002
      -4.4018914138644821e-001 -5.3498085160437532e-002
      4.1800652093597851e-001 -5.4757533612793940e-001
      9.8187640375682408e-002 5.3211568662176600e-001
      1.3805279568552378e-001 1.1845202637800212e-001
      -1.8933176084089876e-001 -2.8558542144343196e-002
      1.8061029042828899e-001 5.7622595471756273e-003
      7.8767839997556849e-002 3.3910905307939498e-003
      6.8144228345216287e-002 -5.0138338638467428e-001
      1.1403898142562675e-001 1.2361998536025633e-001
      -6.7822899336193884e-002 1.1828877204078520e-001
      -5.8659732115495800e-001 2.5649959226787772e-001
      5.4269148174300541e-001 -1.3292598451448994e+000
      1.7516714383346257e-002 1.3828920933274236e-001
      -4.6084620944715138e-001 2.1489786356209356e-001
      -2.2194926066233633e-002 -1.0927435028797405e-002
      -2.0860832174547350e-001 1.2352551153491788e-001
      -3.2949453467828943e-001 1.7599347963532486e-001
      -1.8144941004339693e-001 -1.3478128527693631e-001
      5.7126201031972390e-001 1.0646251865352629e-001
      -2.5202857017142172e-001 -1.0037974580010423e-002
      -1.3074700789258766e-002 -1.1165027883106959e-001
      4.9878178695020209e-001 -1.8586841117342656e-002
      -5.8647050677393531e-001 4.1721228187046150e-001
      5.1004298845962892e-001 1.2760381216161193e-001
      -2.0232748594051372e-001 -1.8594961500574397e-001
      2.0119241628924889e-001 -4.2380790436973272e-002
      9.1281684253557413e-002 7.5041483242803381e-002
      -1.6641031611702434e-001 -5.1277378891635639e-001
      1.8473454294338520e-001 2.1419936027220424e-003
      -8.2307671727922332e-002 1.3303059465998279e-001
      -2.2902545806867280e+000 1.0752594524278165e-001
      5.3775507327984362e-001 -1.6233702395433305e+000
      3.6725543579529807e-001 -8.0723136222181677e-002
      -6.3539755204006942e-001 6.5148072342984853e-001
      -6.5135603781522292e-002 9.3606941438445501e-002
      -2.7699648964034379e-001 1.6186674509340068e-001
      -2.8151987864406358e-001 -4.9965981608501042e-001
      -1.5944582696748880e-002 -4.6693039096125551e-002
      6.1241965881005123e-001 1.0321690785768783e-001
      -3.4659043419648217e-001 -2.2718359843042022e-003
      1.3006581985409296e-001 -3.6036926997324796e-002
      2.7057788845703201e-001 4.3438092082916609e-002
      -1.9531066273747530e+000 6.3145670076940974e-001
      1.1457313658323429e-001 1.1938264892145013e-001
      -2.6591166422002510e-001 -3.2125027665622558e-002
      1.8036900473383896e-001 2.1412021031463894e-002
      8.3668144067498312e-002 -2.7812429108533865e-001
      -1.6143568734319905e-001 -5.1475300435261240e-001
      1.0640141723409237e-001 1.3350327824074076e-001
      -1.6232981964062126e-001 1.1603192979515806e-001
      -1.7595797923919578e+000 2.6900447085855012e-001
      5.5412489193344117e-001 -1.3572016701026413e+000
      -3.9423080014549396e-002 -8.8496711595299413e-002
      -4.3762754649955932e-001 5.3154458877378585e-001
      -5.6073240881064860e-003 9.0331126025628122e-002
      -2.1598020503244558e-001 8.6781980546687953e-002
      -3.1677057716917395e-001 1.7608636832073749e-001
      -1.9643637300079630e-001 -1.6269330064131782e-001
      5.8229666618556386e-001 1.0397092827223857e-001
      -2.7124879293559467e-001 5.1958964070898554e-002
      9.0397962019823655e-002 -2.5486520330496407e-002
      2.8453128603989242e-001 -2.0096358945264142e-001
      -1.4697370054520398e+000 6.6385706347623941e-001
      1.3993299850071875e-001 1.3423450309230489e-001
      -1.7320955957885648e-001 -1.8170991530667058e-001
      1.9440680530015386e-001 -4.7270583626021507e-004
      8.5543867155574133e-002 -5.7092159570405265e-001
      -1.6888832091035638e-001 -5.1761871552709227e-001
      2.8850350036603242e-004 -2.8680135157774372e-001
      -1.6657136768543326e-001 2.3994217789779859e-001
      -1.8488777212658967e+000 2.4857607220449135e-003
      1.5132344311666426e-001 -1.1011548836451242e-001
      9.0971239205462198e-002 -8.2242862653169588e-002
      -4.3648962956690060e-002 -9.1787379555887283e-002
      7.6178537795549603e-002 -1.4845365294561044e-001
      1.2714185427469016e-001 1.0990177485486089e-002
      -6.8064306434418090e-002 -1.3715671487237438e-001
      1.4887016761630267e-001 1.5241354246558747e-001
      6.1502381088767030e-002 2.1348253670380842e-002
      3.3148686905900594e-002 -1.5862798774973436e-001
      -1.9949847175582314e-001 -5.8161280268446372e-002
      -1.1252882556246485e-002 3.1535208871600856e-001
      -3.0807047331477655e-002 9.7809274886629416e-001
      -7.4130546509771134e-002 -2.9137284435850522e-002
      2.1033972055351535e-001 1.0842109898415044e-001
      1.1663169588218022e-002 2.5091466753934255e-001
      3.2913309480987035e-001 4.5199947753147390e-001
      -1.5622601557866569e-001 -3.6750537079121043e-002
      1.8998297374665854e-001 -3.7610016299742965e-001
      4.3806782466247515e-002 -6.9133005555407162e-002
      -6.2347599135017706e-001 1.6489261508945438e-001
      7.1744243934238450e-001 -7.5107317836947074e-002
      -6.4480812162665491e-002 -7.4151443510253073e-002
      8.2715755435083513e-002 2.7659052984056111e-002
      1.6446487477003718e-001 -4.4046402219318971e-002
      2.2028319743340314e-002 -5.7298081114767432e-002
      -6.0177981484392830e-002 -2.2759961849589630e-001
      6.9509125026625453e-003 -9.5884890304886214e-002
      -4.6955986018296630e-001 7.1718756547204179e-002
      -4.2865366044178238e-001 -2.8201332968420062e-001
      4.0258688400717502e-002 4.4167364636034945e-001
      -2.6515759634773810e-002 2.6220592021205541e-001
      1.0345224530460850e-001 1.9838082150952380e-001
      1.1500094132429447e-002 -1.0064139844964030e-001
      2.3588021683095894e-001 9.0076709509250147e-002
      -1.5672776017624138e-001 -1.3329666364979126e-001
      1.0063260410702768e-001 -7.0254879488131611e-002
      -9.5774463341873839e-002 -3.0985424027988148e-003
      -5.0601090523759690e-002 -1.7745515797093886e-001
      -1.8754698007097620e-001 -5.1287526907817682e-002
      -2.8401396713474969e-002 -7.9638393894541873e-002
      2.8307654667436183e-001 -4.8428613390771154e-002
      -3.5126048936318843e-001 7.3738154849637610e-002
      -6.6688829317506559e-003 1.8289875245205361e-001
      -1.4672931297475060e-002 -2.4252376021549862e-001
      1.7900119364315775e-001 -7.5789405845478844e-002
      7.7499411102665117e-002 -2.3286385503098897e-001
      1.1821665166437175e-002 -7.0387101570948588e-002
      -1.5341124976641784e-002 2.4596332845438156e-002
      2.0196850488473493e-002 7.7598459090483851e-002
      1.1296158425940955e-001 5.1391122524638476e-002
      2.8236202491655052e-002 3.0801819326212621e-001
      -9.2336907913291341e-002 -5.6428755977844758e-001
      -1.2985211953122858e-002 -7.4657556801443190e-002
      1.8853304676570062e-001 5.1144295167474166e-002
      -3.2708314535837146e-001 3.9923874525822795e-001
      1.4884253512422971e-001 -8.0930885727910212e-002
      -8.9354662533467938e-002 -1.9971883716741228e-002
      -2.1334263652297231e-001 -3.2451493518432087e-002
      -2.0625080734217538e-001 -5.8931168916789907e-002
      -7.3844971981187613e-002 1.1573379140872050e-001
      2.8796711186044144e-001 6.0834466132062737e-001
      4.1176429427475750e-002 6.2277339046213638e-002
      2.9322819256087873e-001 1.8471831571870334e-001
      -4.9690185370558859e-001 -2.1027469530084741e-001
      4.5143038646258529e-002 2.1956184199540957e-002
      8.6133872226099625e-002 1.5803256984673910e-002
      -4.0289971101025279e-002 -1.0595902291161487e-001
      -1.3218004983765003e-001 -5.9117851376064470e-002
      -5.6434375841976255e-002 1.3351602479835400e-001
      1.7658858413699047e-001 9.4685136014123761e-002
      2.0236636764040146e-002 5.5061957797841066e-002
      -5.7188622806010572e-002 3.9707430519477407e-002
      -1.5722051550034644e-001 3.2263397926751308e-001
      1.5254594479990710e-001 2.0076513205905061e-001
      -3.2951715345840960e-001 -6.4373289612518939e-002
      5.0162235383854850e-002 -3.7861707894780577e-001
      5.0501801169457787e-002 -1.5690595597912893e-001
      9.7092454203592651e-002 1.9675167970057122e-001
      -4.7607775690679949e-002 -7.3720189185441182e-002
      7.3377698840968023e-002 2.7093012864591903e-001
      1.8179145217292256e-001 1.1080647320947168e-001
      -1.9579842969228065e-001 -1.6989977002594921e-002
      2.8816522426626751e-001 8.4720542302520237e-003
      1.0389222335253374e-002 -9.0620684104291555e-002
      -3.7817573863028628e-002 3.1508340405750117e-002
      1.0873551752032064e-001 -4.0848513308879356e-002
      4.1159025206697231e-002 7.9969083860714649e-002
      -3.8164823467597822e-002 -2.0705888994136893e-003
      4.8537190211100117e-002 9.4534331993362711e-002
      9.3675925480740024e-002 2.3050288623770496e-001
      1.2873184402611876e-001 7.3783305021141207e-002
      -3.8054433629827861e-001 1.1059632781898110e-001
      -1.3705548746727214e-001 1.4848263578044774e-001
      -7.5763522945127013e-003 2.0692718196256524e-001
      -3.2184174763513640e-001 5.9864422547690824e-002
      1.0338053131850146e-001 -4.0133809216544070e-001
      -6.7924228037321063e-003 5.1491243056874629e-002
      4.4085675416624885e-002 1.6771397305323757e-001
      -1.0209250277144856e-001 -9.3761666975833755e-002
      -5.8203182592765201e-001 2.3798290649949906e-002
      -3.3794155340896642e-001 -2.7270491523790713e-001
      -2.0232551219219228e-001 5.0260242384771427e-002
      2.1598356600477353e-001 -2.1466942814413723e-001
      -6.0576508337056731e-002 4.4877876880453144e-001
      -6.5689178825754594e-003 1.3863544607187989e-001
      9.8062245963634206e-002 -1.8456354551682552e-001
      2.2918531566153755e-001 7.3119140515182174e-002
      -1.0226232982004269e-001 1.6602423796669978e-002
      -2.0352881615294552e-001 7.7533025216639948e-002
      9.0908015034983469e-002 -2.1570041851931451e-001
      3.6204351295918852e-001 5.6052538153849897e-002
      -8.4809251547590558e-002 1.3140092317428667e-001
      5.9750917676454490e-002 5.4626618245581984e-003
      -1.1440847341814846e-001 -1.0527624737177492e-001
      -3.0375101159048384e-001 1.7153303304175860e-002
      2.5850151283153333e-001 -1.1855650443022109e-001
      6.3439411388913625e-002 6.3953202339135456e-002
      2.5773889425307206e-001 1.8757809303875481e-001
      -6.2801672811425959e-003 -7.9823770001530653e-002
      -2.6912323669880212e-002 -4.0693646394740324e-001
      -5.4887540854282368e-001 3.7716489314615537e-001
      -5.2020485542907324e-001 5.3895764683014859e-002
      6.1663705261940024e-002 -8.8627329324125537e-001
      -1.8791590430641253e-001 4.8903172188868205e-001
      2.4754648419779485e-001 1.1336544074766456e-002
      -3.2760937561793990e-002 -8.8765295705652253e-002
      2.0460046768053683e-001 7.6801126795025654e-002
      4.1183501702398442e-002 2.7773555519252747e-002
      -2.5794049319150314e-001 2.6823554919709156e-002
      8.4420948063284165e-002 -7.2996912702821465e-002
      4.3339602764137397e-002 -7.3419093525521261e-003
      -5.0302373370468667e-002 1.0964598662246176e-001
      1.7093052569965400e-001 -1.3063807565074456e-001
      -2.5184404854151976e-001 -1.1179577062712854e-002
      -2.0760591674979134e-001 7.4283083193301055e-002
      9.5834390414952189e-002 1.3252241048147684e-001
      -2.6818840834570441e-002 3.7685994552922979e-002
      4.2160298181432375e-002 8.1824026988899207e-002
      8.0093960324017360e-002 -6.0143746566706381e-002
      -4.1904727762574661e-003 3.3415103634955073e-001
      -4.1303281833076805e-001 2.2726183453948517e-001
      -3.6129843914711485e-001 1.7251824561624444e-002
      -2.0198302533521004e-001 -3.8922315098137544e-001
      -3.6246312423211702e-001 8.0164370438705390e-002
      7.5002736830178232e-002 -1.2385312523289092e-002
      6.6656628480834867e-002 -1.1619323739720673e-002
      2.2626239665264741e-001 9.0904502754776823e-002
      5.6222891680253614e-002 1.1653323660109727e-001
      -5.4284394177504691e-002 -2.0805675541356838e-001
      5.9607521148263294e-002 -1.8908176651625558e-001
      3.0982561290651498e-002 -2.4096670237072701e-001
      4.7260250106345714e-005 1.2596733630148191e-001
      -5.2279188641107741e-002 -3.3972027771455404e-001
      -1.8689728300679501e-001 -1.6405466235712221e-002
      -2.1124502940463311e-001 7.3474981673313816e-002
      -2.3253599785675311e-001 3.0488114687263984e-001
      -2.2906125490215867e-002 4.3875186385452014e-002
      -2.1283175910453377e-002 9.6054902529797953e-002
      1.2811133006547024e-001 -7.5159664568127033e-002
      -8.4577555484919284e-002 3.0177944471601914e-001
      1.9765052751319963e-002 -2.5072860096278474e-002
      -1.4004748952910106e-002 3.7463479978685515e-002
      -2.1261425617212498e-001 -2.3074289755618141e-001
      -1.2975409365888082e-002 1.1338956971768481e-002
      -1.1748612412334712e-001 -3.8299722189912394e-001
      -1.3517967991993848e-001 -1.7141851125904597e-001
      1.0223053844067982e-001 6.4552581122362604e-002
      1.2056851035457558e-001 2.9528912053506945e-001
      -6.6023231523422788e-003 -9.0608781169218944e-002
      -1.4366763797056266e-002 -2.1085075862816205e-001
      -1.2278815899438174e-001 1.1190538036443268e-002
      -8.9644722850881750e-002 -5.5409442920934027e-002
      3.4617485028960907e-002 -1.6497418688330942e-001
      -1.0218052075094257e-001 2.5554900353185672e-001
      2.5554997704878163e-001 1.5662533695900621e-001
      5.5995629986743303e-002 2.1882129980549270e-001
      2.1498147084104247e-002 -2.5282283009130446e-001
      -3.1431296124280562e-002 1.2100861636458501e-001
      2.2870190534355009e-001 2.0258609321975968e-001
      -1.8862074389380015e-001 6.9006907214645341e-001
      -7.8964022948692786e-003 -4.5724060533664646e-001
      1.1174795939480559e-002 3.2970966108154545e-002
      -2.9378785304035820e-001 -1.3735628026281552e-001
      3.0384159640620229e-001 1.0083388985219274e-001
      -1.5636513921564833e-002 -6.2795397777685044e-002
      -1.5256065991066234e-001 1.5879134707963460e-001
      7.9704636178925495e-002 5.3441678373956178e-002
      -1.3670451587120677e-001 3.2909016896775417e-002
      -9.1928467970126757e-003 -6.6333034505733426e-002
      -4.3709578265115651e-001 -1.5947028180544848e-001
      -6.1314939206468758e-002 -1.6281062795330509e-001
      -1.9360799502403825e-001 2.0678178883122664e-002
      3.3884429585600680e-002 -4.4621187345108393e-001
      1.7676229375353150e-002 9.8189109603811470e-002
      1.7140807023488094e-001 1.2994892284177684e-001
      6.4161442558355111e-002 2.3972636689653992e-002
      -1.5964735078789399e-002 5.0820549588931806e-002
      -3.4667166041138404e-002 6.3115947481341403e-002
      6.9774224072973776e-002 -8.0620249941528568e-002
      -5.0926560232918305e-002 7.4789807428948651e-001
      -9.6564807186340473e-002 -3.7768552638173646e-003
      -4.0864687437135574e-002 2.1349682777933247e-002
      -2.0399417291497732e-001 -1.3625239158603411e-001
      -1.3564570113638330e-001 1.0446676581341552e-001
      7.0293056298357914e-002 -1.2865984467554437e-001
      -1.7185777005316766e-001 7.3315250358791495e-002
      3.4240907838783648e-002 1.1828006465546943e-001
      6.7062958700523118e-002 8.3062673700423001e-002
      2.0971183485711881e-002 -7.5672076243206474e-002
      -1.3094705381799642e-002 -3.1576833246922126e-001
      -2.0716591517779478e-003 -2.8708265931521748e-001
      -1.3695718177954248e-002 3.1673986182539464e-002
      4.3803012525850636e-002 -5.1270146152249274e-001
      -1.3405826314052655e-001 7.0183083196010982e-003
      2.3606339338793020e-001 4.5181208106121584e-001
      1.1793155690956024e-001 8.6226051581830068e-003
      -1.3472367460742167e-002 6.4125329414938356e-002
      -7.1920091801825264e-002 1.6702030168544331e-002
      3.2685401847593214e-002 -4.4036640348675167e-002
      3.3900162341002679e-003 2.7858447534294500e-001
      -3.8284750088772912e-001 -1.2588991564268565e-001
      -7.6900686218470349e-002 -4.7221735411210893e-002
      1.7051816751936683e-001 -5.0280164946348495e-002
      -2.1545429624053750e-001 -1.3227534865266355e-001
      2.0653134814857439e-002 -2.7068704869307214e-001
      -1.5542785058847797e-001 2.3234390726159883e-002
      -5.6789684794466930e-002 1.3743983762858061e-001
      -7.4892104547849461e-002 -1.1285707359128880e-001
      -6.2556911882764896e-002 6.6135128643544844e-002
      -1.8321369054400366e-001 -4.0307955207178746e-002
      -8.1132824097257958e-002 1.8498917893032080e-001
      -1.2334671338253195e-001 -5.4939911081073108e-002
      2.1937181656652222e-002 -2.7830080730283124e-001
      -1.3857092432033175e-001 -1.0880453522003178e-001
      -3.9930104884119794e-001 2.0043899204782275e-002
      -3.4462336259851206e-002 -1.2559400315168364e-002
      -1.9178760888980816e-002 4.3516964296097235e-002
      -3.7896166893350181e-002 5.7884316660719672e-002
      1.9466162375553764e-002 -8.2528636506871270e-002
      -1.0863145554355334e-002 1.9322988375771880e-001
      -2.9130033517463172e-001 8.8475081470562419e-002
      -7.9206996393567167e-002 -5.7551933925351706e-003
      1.9354142066681435e-001 8.0189739111194383e-002
      -1.5874326454998750e-001 -3.0868181572042441e-001
      -4.0194503795957806e-002 -1.1742181364643847e-001
      -8.1251196676612611e-002 -1.9549383321010261e-001
      -1.1006275979575078e-001 7.9112649285921575e-003
      -2.8537585424478429e-002 -1.3538334775953575e-001
      2.2339715109763436e-001 -7.7280604161190022e-002
      9.0930059417434372e-002 7.0845299128791103e-002
      -1.4984406798461412e-002 9.8464628219453809e-001
      1.0884026942033953e-001 -1.0829625199964803e-001
      1.5042345752729671e-002 6.1385753134581521e-002
      -1.9883153326647224e-001 -2.3276890047548116e-001
      2.6981980334317984e-001 8.5683776072280407e-002
      -7.4279770237288698e-002 9.3652650825008496e-002
      -4.3312467429530314e-002 5.1104615133196404e-002
      -2.2651989748166627e-002 6.8527398238632364e-003
      5.0156465451695932e-004 -7.3060158865852792e-002
      1.4553714255695471e-001 3.1976795365271526e-001
      -1.1402891877076640e-001 -5.1458517087955631e-002
      -1.9747236460992601e-001 1.8227516230532828e-002
      7.2309867001080316e-002 -1.1804958260516685e-001
      -1.6967503888860555e-001 -2.9988276794075591e-001
      3.3031268212978783e-002 -1.0428161409567129e-001
      -1.0230051867508197e-001 -1.6816228935569319e-001
      -2.3830853820792593e-002 2.7437945402707279e-002
      1.6545016746173327e-001 -8.1592576905955158e-002
      1.2278144387544593e-001 5.2056386360064627e-002
      9.8487474724005597e-002 2.0523970787376514e-001
      -3.0538284431676233e-001 -2.1583894713679277e-001
      1.1100614836715478e-001 3.1415329510431128e-001
      -2.3481562930751937e-001 -5.9725604215591900e-002
      -3.6285357329928430e-001 -4.9029602747070120e-002
      1.0620495711253328e-001 -2.3732692453062371e-001
      -1.4532521297525763e-001 -1.9651199458121474e-001
      -5.0124918143566718e-002 2.9832740637145243e-002
      -1.3775414771292823e-002 4.3362929695860385e-002
      1.4996856117919588e-001 -6.8634093049064565e-002
      -6.6719421621882435e-002 3.9127150582640596e-001
      -1.7650481559619935e-001 -4.0795089026895472e-002
      -1.4938055543911036e-002 -4.9309614667997680e-002
      -1.0132036936953602e-001 -7.2222493426450748e-002
      -4.5441420832211948e-002 -1.9921979300320833e-001
      -5.4414182935428906e-002 1.1138006437478248e-001
      -1.3380176586090725e-001 1.1213153203816975e-002
      -1.4086333096909895e-001 8.5674334365868701e-002
      -1.1594109675749061e-001 -1.2553368162021333e-001
      -3.0136597422920464e-002 6.4623820390075276e-002
      3.6788181619844075e-002 2.1882533220829506e-001
      -3.8026348624586238e-002 -2.3786267113113807e-001
      1.5152177564962688e-001 3.8261124412594205e-004
      -1.0780809571805254e-001 9.9737549625878386e-002
      -4.9081334886908240e-001 6.8192018528246592e-002
      -1.6277976565065622e-001 -1.3100100636196399e-001
      -3.1422825250538300e-002 -6.2254035677346678e-002
      -1.9169279810352557e-002 1.6803475227142397e-002
      -6.8289872158883418e-004 -2.3556126103729770e-003
      5.1941461415378025e-002 -5.6641203529055217e-002
      3.7730572127764608e-002 7.8522805333578374e-002
      -2.2093505426868035e-001 -8.8542319612266149e-002
      -1.3521906025923619e-001 1.1133800595267387e-002
      -1.4417168893059232e-001 -1.2801767689588850e-001
      -3.8367447925095201e-002 -1.3162284636760860e-001
      4.6035639854476368e-002 1.6254105730438700e-001
      -4.5227240149327726e-003 2.0518592022588922e-001
      -1.0060980946131004e-001 1.3409516439292229e-001
      -1.3270548479323696e-001 -5.4388216214732707e-002
      -1.3569590823994046e-001 1.5457227047227035e-001
      -1.1785310965331039e-001 6.1516859939343763e-002
      3.0223326506817440e-002 -2.4694127100884219e-001
      2.5401092521318480e-001 2.3353380961843734e-001
      2.7495622371670220e-004 4.4096998373068547e-001
      -2.3414730240511955e-001 3.5794695681806384e-002
      2.1355234826872879e-001 -1.9814025382548320e-001
      -3.5356676123994159e-002 -4.5751324662788161e-002
      9.8523742515822646e-002 -7.9148643305833211e-002
      7.8322978610038799e-002 4.5525455271018277e-002
      -1.3223894544626652e-001 1.8828513482483678e-001
      -2.6290372409788064e-002 -3.0196041563533516e-001
      -3.0107673727849843e-001 1.7763147968413294e-002
      -2.9332906172257794e-001 6.8199153283633351e-002
      -1.8508152583127108e-001 -7.6390356157227085e-002
      -1.0698720352583131e-001 -3.5561163876724011e-001
      1.4611308060180400e-001 2.5330252714488556e-002
      -3.3051470047667314e-002 4.0568039160827807e-001
      4.3270233306095016e-002 2.4448621002131168e-001
      -1.2793499338254796e-001 -2.8993977739807827e-002
      4.3019280054515066e-002 -6.2197617980348778e-002
      5.1501167230766663e-002 5.2918940543734749e-002
      -2.5923837318104576e-001 -1.8624107806909154e-001
      1.0593913671250799e-001 9.6182157667929022e-002
      -1.6577916143139707e-002 7.3885028437338615e-002
      -1.6934920326940020e-001 -3.0067456304835781e-002
      4.1046777352523839e-001 7.3371795760620168e-002
      7.4126731883471533e-002 1.2170160450941912e-001
      -6.9543251568790265e-002 -4.3925155938169716e-002
      2.8532565211221508e-002 -3.0027163311045363e-001
      3.8695140934748795e-002 -1.5784876395645112e-001
      -7.0436411697535076e-002 -2.3738698419111090e-001
      -9.6023988079746880e-002 3.7724073885819144e-002
      4.0401139338610043e-001 1.1584254614790718e-001
      -9.2858294729476279e-002 -7.7749725416334875e-002
      6.1044591336532894e-002 -1.4774349665046116e-001
      8.9427555791433654e-003 2.6979203897471971e-001
      -2.3819547549952455e-001 1.9575954920442129e-001
      2.6028034774451353e-001 -1.1078860073364438e-001
      2.8443614204538725e-001 5.7712299295710021e-002
      2.5540699970660795e-002 -2.5991025039314615e-002
      1.1020960605812069e-001 1.0462966772096143e-001
      -1.1621357656493959e-002 2.3375022879464735e-001
      9.5070607580639163e-002 8.5082081420357641e-002
      -7.4015375647825763e-003 -2.0806931496659012e-001
      -1.0938218099533037e-001 -1.2915859431257806e-002
      6.0368935184904748e-001 1.0922622245212885e-001
      1.2849467117339941e-002 2.1373613703560976e-001
      -2.0285097054271117e-001 2.0429983321874290e-002
      -1.4543577085967693e-001 -2.4365920525140922e-001
      -9.4297778898740341e-003 -1.0429046779494366e-001
      3.9760677160376847e-003 -1.6766687967074140e-001
      -7.5504979591089566e-002 5.3187532929037995e-002
      -1.5583298819706848e-001 1.9406329754654575e-001
      -1.0304710252102819e-001 3.7560738903852614e-002
      -4.0945962095641067e-002 -1.6907581893682930e-001
      2.3335188089349196e-003 3.6393743229452091e-001
      -2.3889827897235597e-001 2.5927110755570026e-001
      -2.8722882653127652e-001 -3.5451213607235479e-002
      4.2824283650038314e-001 2.2072439346824194e-001
      -1.0991557608746143e-002 -1.7976336541983152e-002
      1.1067728414273917e-001 9.0832560954769367e-002
      3.5051878257728146e-002 6.7069811553569891e-002
      9.8705687232511760e-002 2.7037618621466880e-001
      3.1153115672685566e-001 -1.2177522830875684e-001
      1.4410945706749614e-001 -1.2378737070501387e-002
      5.1845843039744743e-001 1.4081342603718289e-001
      -1.6400800885907688e-002 1.4225307769940665e-001
      -3.1699511982746387e-001 1.4261361848047208e-001
      -4.3923702791947999e-001 7.6262879053050278e-002
      -1.0028349944885998e-001 -6.1953470537224227e-002
      -3.5680929066032326e-002 -4.4169685252671165e-001
      -2.6320971068905595e-002 -5.0909127890471209e-002
      -8.4919740106247477e-002 1.9996613966458249e-001
      -4.9113096668977466e-002 -7.5442558172874180e-002
      3.5270964711925851e-001 -1.8378235949036290e-001
      1.5936377474063908e-002 2.5964935370705167e-001
      9.2112865401165617e-002 5.2954156740915838e-002
      5.8653938819193996e-001 -6.6714181083775526e-002
      6.8196103299672239e-001 2.1504520079804194e-002
      1.1011341331378210e-002 -1.8223267018890113e-002
      1.0795573097931727e-001 4.6172683572990963e-001
      -9.4838424791911180e-002 2.4011769739975858e-001
      1.0491099829418013e-001 -2.6030742876136165e-001
      2.0887554566489741e-001 1.0740847676482307e-001
      2.0345887601442950e-001 -7.5841121845597381e-002
      5.5197725020339550e-001 2.6981940318038444e-001
      -1.0470746756769412e-002 2.5300958504430476e-001
      -3.7563985424398046e-002 -2.0325045800262276e-001
      3.2631145503287849e-002 -8.8079866940964507e-002
      -6.3881845442246774e-002 -1.0937775449374755e-001
      4.1215045661591188e-001 -4.8326733931799454e-002
      7.2977468546443561e-002 -1.0300016033831966e-001
      4.3573670311431320e-002 4.7242115030737726e-002
      1.0889976190379264e-001 5.9764854911113763e-001
      -2.2398325399545480e-002 1.4957426818485894e-001
      4.2352669557765447e-002 -7.5619441877436799e-002
      5.5183448360748913e-002 -4.1452521912657345e-002
      4.5938905777343142e-001 -1.2524030850958748e-001
      -7.4397533286010824e-003 3.7403602638110475e-002
      1.1653726572872759e-001 -1.0140198224270876e-002
      -3.4327185244450401e-002 -2.2200918107360942e-001
      3.4879955626325837e-001 4.7504658356280385e-002
      -2.2640875253545711e-001 8.5550007371836181e-003
      -8.3307627614334717e-002 -1.3958594268314731e-001
      1.3498456888290006e-001 -4.4026396815918571e-002
      -1.3695157645836568e-002 -7.1374231767541221e-002
      1.1941446224235025e-001 -2.6135997413239531e-001
      -7.3276556661804160e-002 -1.2853863021649964e-001
      -1.9989011530314571e-001 -6.9854064037051647e-002
      -8.1760176972276818e-002 1.0123008887653652e-001
      -2.6384300316892068e-001 5.7624381379313731e-004
      1.6104758715014184e-001 1.7577801409948324e-001
      5.1015375737007221e-002 4.1711528451947880e-002
      2.5130878765585057e-001 1.0521384296786606e-002
      -3.0199131302279864e-001 3.0246246722650281e-002
      1.0488216505221577e-001 2.2683010838245887e-001
      -1.1423413365579649e+000 -2.8113450335898010e-001
      -8.9281798125348269e-002 -7.1713547708840419e-002
      3.2869334882689644e-002 7.8035602557351605e-002
      -1.6484915942276512e-001 -4.8689107512353384e-002
      1.5623219254824153e-001 -1.8035890756759745e-001
      1.7867244322374012e-001 4.3661364946747561e-001
      -1.0808104399111753e-002 -4.0581616602868753e-001
      8.8077619814844535e-003 1.9635972192400267e-001
      2.6574650063843341e-001 1.1722677954447391e-001
      -8.7904770054972478e-002 -5.6743027085682018e-001
      -1.5285075575731180e-001 -1.9007543678544803e-001
      7.9110367332592280e-001 -6.0177353596010341e-002
      -1.7317974032018119e-001 -9.0899430316458460e-002
      6.3761148116439251e-002 7.6095204944512671e-003
      -9.8265047742740128e-002 -5.4671239087666412e-001
      1.1293286633279835e-001 9.4174985699562841e-001
      -7.2026291272232123e-003 -9.9337645582300474e-002
      -2.6226999755783437e-001 -6.1362260838430625e-002
      5.0299578504213549e-001 2.0634426622560767e-001
      1.2133770628015945e-001 2.7400336013889565e-001
      -1.1648894506460732e-001 -3.8943392643302388e-001
      1.5387194496155324e-001 -2.8441774907322420e-001
      6.3943765697650210e-003 1.9392786466456056e-002
      -1.3394627158266656e-001 -2.1214666621658587e-001
      -7.2242030850600480e-001 -3.3584472428789769e-001
      -5.6232652857981136e-001 5.6606481931423458e-001
      1.0312034790287063e-001 -1.0700354710471884e-001
      4.2755221087771511e-001 -4.6379602101558899e-002
      -1.9386573199751019e-002 1.2443733979873167e-003
      -1.6613793737852739e-001 -5.3996450308333388e-001
      -1.2118941453344743e+000 2.1305978057539851e-001
      7.7462474558529240e-002 7.4127060145732851e-002
      -1.0067954320793618e-002 -1.0192150018095295e-001
      -2.3759760415528297e-002 9.4097367250489033e-002
      -1.7997980462352375e-001 4.7669373458981212e-001
      5.0056772057054155e-001 -7.4407659354136391e-001
      -1.4981673414219152e-001 4.4690531080729047e-002
      -2.6872885008365538e-001 2.7501648401106565e-001
      9.0265060995884716e-001 4.1372509274536099e-003
      1.0087132296399105e-002 -4.1494604781948392e-002
      -1.6998458487558613e-002 -9.1329260587166339e-001
      2.9174362941496085e-001 -2.0338709459300627e-001
      7.0460450014780218e-001 7.7279000642156259e-002
      -2.5500817107650681e-001 5.3339598576779536e-002
      -2.7393746281760084e-001 1.8389062873877701e-001
      -8.8115347506098640e-001 6.9832201519881412e-002
      -3.1881862203517330e-001 -2.0468146726155659e-001
      -2.9549329638900126e-002 -1.5084097246772440e-001
      1.8500664247989149e-001 1.6832278590450500e-001
      -1.2943534829043224e-001 -8.5685376246079664e-002
      -1.0056947296724028e+000 1.9234608999139122e-001
      2.2865255458470815e-001 1.7175452930003116e-001
      1.8798399387071680e+000 -6.4836437087081478e-001
      -2.0466738313567748e-003 -6.6014357484299360e-002
      -3.1854475004517191e-001 -3.4347728792776214e-002
      2.6072403508098307e-001 6.4467565160629847e-002
      -9.2660230247600853e-002 2.4834316490171854e-001
      -1.7251805579607302e-001 -4.6628010854095603e-001
      -6.5720598884696724e-002 -2.0609629601958918e-001
      1.3068111845290564e-002 -7.7196757626192936e-002
      -2.9112291172456739e-001 3.9773548215529525e-001
      3.3224415763555420e-002 4.4560151906331524e-001
      2.4116566369781328e-001 4.9266339899916645e-001
      -3.6106349240365028e-003 -7.0553176804206350e-002
      1.1075433359801801e-001 6.2613476998575246e-001
      9.4278368587075695e-002 3.2126565703213823e-002
      2.5460783458067493e-001 8.4352187631707987e-001
      -4.0106872519871653e-003 2.3386483883425019e-001
      2.2640156249656643e-001 2.0864821966452157e-001
      2.8356658040709237e-001 4.9881299256098938e-002
      1.0103384131828423e+000 -1.8155631577080191e-002
      -1.3409806514249920e-001 -6.1537951768955761e-002
      2.1475594288917130e-001 -2.9141425194685197e-002
      -2.2730374050826374e-001 -7.2042750918679288e-002
      -7.2038554568518887e-001 1.2711793868399121e-001
      -9.0821972901258929e-002 2.9915356511775260e-001
      -1.5774391146426009e-001 6.9780841930216261e-002
      9.0906622559348615e-001 -4.4938241208717111e-001
      -2.5370119751951364e-001 -1.6741889005795307e-001
      -3.3422637571032376e-001 2.6559433091473045e-001
      -5.0704835929281244e-001 7.0124637746134533e-001
      -7.1555151483128576e-002 1.3777871869036840e-001
      2.8436893840929939e-001 3.1976445033998008e-001
      -1.2934552573321648e-001 -5.8523939796415694e-002
      -9.7279314803842776e-002 1.1032437235494059e+000
      -7.4097724135794796e-002 -1.6479024000286971e-001
      1.7086820536260508e-001 -1.0433343914121357e-001
      -2.7929080096868342e-001 1.0198345036199834e-001
      2.8725127809926210e-001 -2.6842909130708337e-001
      -3.5863509172246788e-002 2.1787551278913980e-001
      1.5823330152276058e-001 -9.5008096914602543e-003
      -7.5084980368889120e-001 -1.1891460889431542e-001
      1.5583004248472493e-001 5.3873206212701044e-002
      -7.4336903568163845e-002 4.1663671919332096e-001
      -1.1705993096093142e-002 -3.9476835586675896e-001
      6.4194302489090960e-001 -4.4911866768208653e-001
      2.7203540965838180e-001 4.9771554175533431e-002
      -1.8513632293140414e-001 -6.1068109692758277e-002
      -1.5462602229492906e-001 1.1260367453738096e-001
      2.3760990803238367e-002 -6.1980174882172923e-001
      -7.1033872577978274e-003 -6.2528340690157513e-001
      -2.6614996673393787e-001 1.2979156227283484e-001
      4.1879926160026476e-001 -4.7283405527466732e-001
      -3.7585313015088084e-001 -1.0504519083300308e-001
      -7.3722853575523856e-002 -2.2334286443326443e-001
      -3.1751166522851287e-001 -1.4506852304581092e-001
      -7.5416949501765562e-003 -2.5873041125805979e-001
      -2.9613194914813137e-002 2.1903633441558415e-001
      2.3663806948626004e-001 3.8668608960636830e-001
      -6.1319295309124396e-002 4.9750645951937922e-001
      5.4421051099879672e-002 5.4276325057542332e-002
      2.4651882843144263e-001 1.6268371419373512e-001
      -1.4728567067104659e-001 -2.1667931926847028e-001
      9.5022593861335339e-002 3.1603575838847703e-001
      1.4565273994743236e-001 5.2668359382695618e-001
      3.3441724240979170e-001 1.1396213415057701e+000
      7.3418469685602250e-001 9.9350507607857699e-002
      -2.1862668241251879e-001 3.9012453456298710e-002
      1.7483547662793142e-001 -4.1681018658942977e-002
      -1.8957110791045928e-001 3.6394869669420854e-001
      -1.0544575968636936e-001 -3.2221133234390559e-001
      1.1478786580351538e-001 8.0406085700727870e-001
      -6.5581593108665182e-001 -1.1338089656121762e-001
      -8.0641891179328601e-002 6.7882583916619527e-002
      -6.5853436089634565e-001 -5.4217910922856283e-001
      -1.5716158823437071e-001 4.1104845555211966e-001
      4.0005787122662922e-001 2.9167954352381464e-001
      5.4174555350022757e-001 -5.1494255361998885e-002
      3.7573092702075173e-001 1.2503971123423291e-001
      -3.4877101241950076e-001 -1.5634569787315208e-001
      -1.8843265191152300e-001 1.0429434213773621e+000
      2.7698877003224498e-001 1.1243040314092859e-001
      -2.4716082133487474e-001 1.6419542570143236e-001
      -1.0674810084463851e-001 6.1792648559998747e-002
      -1.5380188668251565e-002 -1.4061450028269223e-001
      2.9381105737948809e-001 -4.2041152276994798e-001
      1.4238489158471346e-001 -9.6837882026137745e-002
      -6.6636292354137605e-001 -3.3493518134230876e-001
      -4.8996894546392347e-002 -1.4887352259377520e-001
      9.1009099470225863e-001 -4.2301062302427583e-001
      -2.9407916553944247e-001 4.0496607111906634e-002
      1.3464993121641761e-001 1.4378806531964153e-001
      4.7699047761622232e-001 5.0079408635998683e-002
      1.5899654784670683e-001 2.6928653236980538e-001
      -2.3152669921995617e-001 -3.7550838987854263e-001
      1.7508478404540723e-001 1.9216373558102845e-001
      -2.5906024126668603e-001 1.9937654574289498e+000
      3.1952916937631493e-001 -1.5333006471268540e-001
      -4.9893534099159226e-001 -1.4816376725557323e-001
      2.8557074368805185e-001 -1.5148345935458396e-001
      -1.6071840500243398e-001 -7.6815876764521479e-002
      -3.7811123349897979e-001 -6.1006800688164206e-002
      -4.6701311350756669e-004 -1.8857423523592882e-002
      -6.7836735330980100e-002 3.7683527062693095e-002
      -3.1466299051463702e+000 2.6875047708531657e-001
      2.7862133094170594e-001 -3.1901660206622555e+000
      4.1835018738387290e-002 -9.8417908559068498e-002
      -1.2736326631136299e+000 -1.1944802797057452e+000
      -1.3213363230332312e-001 -2.0836707392583353e-001
      2.6242697377258667e-001 -1.3051279371994190e-001
      -3.2901306410401970e-001 -3.1509993587706966e-002
      2.1048295462953206e+000 4.8424294802693283e-003
      1.4529767420818238e+000 -3.5948888332858954e-002
      6.4259617185051854e-001 -1.6665885667324509e-001
      -2.9685999330813068e-001 3.4265619967531739e-002
      8.3071516189031258e-001 -8.9494823707146079e-002
      -3.1958290556417865e+000 2.0017523887122493e+000
      2.3889793596152087e-001 1.6736659590341793e-003
      -1.8915687208303464e-001 -1.1157063715944318e-001
      -1.6786451061881127e-001 8.8682572438073690e-002
      -1.2983488663381307e-001 -1.2822676856010335e+000
      1.4125417987108663e-001 4.4725788467460698e-002
      -6.0500897124461800e-002 8.5736979154769563e-002
      -6.5659289463060766e-002 -1.6222687813850698e-002
      -4.1355738982818485e-001 -2.6310967614436309e-001
      -1.9117483230650217e-001 -1.3147175956855403e-001
      1.0276309337125034e-001 9.7954731021574828e-002
      5.2934873706057496e-003 -1.8860357176735384e-001
      2.4680843583363948e-002 -1.6289346153384572e-002
      -1.0943710509835833e-001 -3.2531620796613020e-001
      -4.3041711372148198e-002 -2.7326607796171989e-002
      6.7553676421772096e-002 -1.5336068077485310e-001
      2.6372359475014162e-001 -2.8713302617362671e-002
      5.2372057269186853e-002 1.3529570517935997e-002
      1.6513127602909593e-002 -2.3029891498658594e-003
      3.5431664924552582e-002 -6.5697844215167792e-002
      7.3889778551759586e-002 -1.2473622544346376e-001
      -1.0546756145405262e-001 -9.6966175382593427e-003
      1.5048144617375889e-001 2.8846908831211965e-003
      -7.5634835354151025e-002 -8.6597694395210904e-004
      1.4069852370996588e-001 1.4610331091302700e-001
      4.9076249324831234e-002 -1.5247300685234619e-001
      -4.1174754797623142e-001 -2.0457390359126712e-001
      -4.6160348198467024e-002 4.8417521370497013e-002
      -2.6887178894237446e-001 -4.0337091035867875e-003
      1.5486568503717504e-001 2.4177177429543420e-001
      1.8323573232664278e-001 -4.8515521690086383e-002
      -8.4558749073080836e-002 -1.9983860629937172e-001
      5.9090047557113612e-001 -6.0963653387950338e-002
      -3.8529627377997927e-001 1.0209196006186771e-001
      2.2086303050863601e-001 9.1482104954574553e-002
      9.8930284240865224e-002 -1.3341531192388217e-001
      -2.6336549493859029e-001 4.5680554987261458e-002
      5.2340229429637536e-003 -1.3776559318967321e-001
      -8.9006565243921157e-002 6.7361809701647749e-002
      2.8732016863300353e-001 -3.0099820859645449e-001
      1.7407488811490526e-001 2.9894482043339654e-001
      4.1873743156537035e-001 9.8437256082291619e-002
      1.9251062954287870e-002 -3.0906574328557174e-002
      1.3469120856920383e-001 9.9617208958801079e-002
      -1.0010590868653738e-001 3.4786961610278005e-001
      7.8488491497165924e-001 -7.5208730941152352e-002
      5.5837134098578434e-002 4.3448125378673090e-002
      7.7996515860104282e-002 -8.3859153046848642e-002
      -3.0630486379431227e-001 -1.9126029547981305e-001
      1.2625369147208543e-001 9.4750079164913112e-002
      2.4120689960996580e-001 -1.2519224554206038e-001
      -3.9100272335942467e-002 -9.8400186339913806e-002
      7.0805827691271958e-002 -2.7605093303966488e-001
      -8.3280492806541997e-002 8.2427688239592192e-002
      7.8174480156388573e-002 -7.4729054063089523e-002
      1.4834570406070813e-001 -5.6541980195185894e-002
      -5.1269074522247628e-003 5.2638177126393064e-002
      -1.1886232288029161e-001 2.8268979044376125e-001
      1.0788301810712352e-001 4.3006986975675759e-002
      -7.6098090041644514e-002 -5.8563997063242057e-002
      5.8077788522446339e-001 -1.0771816387936230e-001
      -7.7717411385960417e-002 -3.0511893498861062e-002
      -9.2737700098507597e-003 -2.1468242690292856e-002
      1.9664811169462479e-001 2.2245394697296969e-001
      -2.8616888288447206e-001 -7.4599438439730908e-002
      1.5398286044981729e-001 3.0568676055673986e-002
      9.7162871270697462e-002 -2.0380424946858117e-001
      6.5725533297525576e-002 -7.5266669937670172e-002
      -4.8591349577955473e-001 2.0752524668054656e-001
      4.5286936844759423e-001 -8.2915614683963274e-002
      -2.4943649653491068e-001 1.8341332010516043e-001
      -6.3367275540932200e-001 7.2802329444675531e-002
      -4.0415201505952783e-003 1.2779728490499326e-001
      -2.3181927694865320e-001 -2.3566999168588512e-001
      1.6112938035068766e-001 3.7978117633774383e-001
      4.3858238224244867e-002 -1.0766164092173268e-001
      2.0104876541288792e-002 -1.1563285745049449e-001
      -9.0038950849273713e-002 3.7571710022603633e-001
      1.5183272710978257e-001 2.5361054975385350e-001
      -3.9511363911768893e-001 3.1248733382748606e-001
      3.5620012023415887e-002 -7.1469139990875286e-002
      8.9671516179159458e-002 2.5163962054069258e-002
      -4.8538850150113416e-002 1.7006303596794456e-001
      -7.3754539962956861e-002 5.0029311826306155e-001
      5.9210402567318199e-001 -1.5811048368318065e-001
      -7.2126658632439070e-002 -1.0591894285563073e-001
      3.2014103981627834e-001 1.1123512610053453e-001
      1.0249835853748711e-001 1.3649593055783113e-001
      -6.2067645593200560e-001 -2.8514286446900611e-001
      4.9131953371924143e-002 4.7136031137661061e-001
      6.4724163842943883e-001 -4.2101063437335863e-002
      -1.0268498479094450e+000 -1.8847916959849251e-001
      6.0383926359633666e-001 -2.2758070841684416e-001
      -1.5428121522130675e-002 -2.5111685605505624e-001
      -6.7485246544242358e-002 1.6478377744774964e-001
      9.1318279427819213e-002 2.8891144571623328e-001
      8.7140809462538260e-001 1.6772260328376892e-001
      -8.2346441352074184e-001 4.9100984577213763e-002
      -1.7904680922899749e-002 2.0121206840711614e-001
      1.9436909432896265e-001 2.3037678362164862e-001
      1.8024567282279764e+000 1.8560306976182614e-001
      -6.9114482271122213e-002 -5.3901197390786404e-001
      -2.7331267120869379e-001 -1.6788661448688735e-001
      -5.5696601387010325e-001 -5.0544743179757212e-001
      6.8618247659803289e-002 -2.2600004801012019e-001
      3.7905349010548095e-002 -8.7115570798081660e-002
      -7.8278946505888680e-002 -4.1965531473070521e-002
      -1.0078732495012675e-001 -9.4036393324643835e-002
      7.1470218870442886e-003 5.2457983850141686e-002
      7.2974673936695586e-002 5.1625205285971021e-001
      -9.8438097187693342e-003 -7.8953195010925584e-002
      -4.9185604201664657e-001 -2.8918434116261396e-002
      8.3428440986864671e-001 -2.2339260638593023e-001
      7.4775566185158418e-002 5.7659675343443899e-002
      -8.4173615557382273e-002 -5.2162873797935341e-002
      -4.8521219870626665e-002 -7.1984675174813925e-002
      -5.2459619726546239e-002 -1.6979245628385850e-001
      -4.2461658053078388e-001 -1.6846417155457458e-001
      3.3009904113089801e-002 5.3397563029113526e-002
      1.8485190625717096e-001 -1.1838456374844129e-001
      6.2987336444856434e-002 5.2739261138188043e-001
      1.3738459278549242e-001 7.6258372433128996e-002
      -1.1913261533522533e-001 -5.2968152809729829e-002
      -2.2255311269745789e-001 -7.2301036100930216e-001
      -3.0449589067321975e-001 3.4803256319668886e-002
      5.3805348056130608e-003 -6.8793810923331353e-002
      -3.5281623927799055e-001 -1.6707347324530206e-001
      5.4502923470778661e-002 1.6351450701517167e-002
      5.1402539497611943e-001 -1.0583867554886774e-001
      8.4925581710029818e-001 -9.9764500214874728e-003
      -7.4088503682168272e-001 1.2838555274497024e-001
      5.5280901993060094e-001 1.0067220660569834e-001
      -4.8593276768871135e-001 1.1006343041670735e-001
      4.1371825091804038e-002 1.7444113392006581e-002
      -8.5446284968598116e-002 -8.7437124536602673e-001
      -7.4975964970463022e-002 -1.2933380725854340e-003
      2.9734816318619617e-001 -1.1017543290030801e-001
      -6.1048811925192840e-002 -5.3460340412406562e-002
      -2.8410466901239332e-002 1.3898143240133012e-001
      6.4755828263679982e-002 -3.9129913168252223e-001
      -5.2865594954058670e-001 -1.0954705925723646e-001
      -2.3675486081218053e-001 7.8288417161073776e-001
      2.3883659250310529e-001 4.9636280941511757e-001
      2.1328986137378919e-001 -4.5451282488628980e-001
      6.0002677986287467e-001 -6.7504500680904933e-001
      -2.3573990479002421e-001 -3.1071166740307499e-001
      -1.1050285074263879e+000 1.8639167739308852e-002
      -3.9338519295309224e-002 2.1653403968954252e-001
      2.4195808618310710e-001 -1.0727705054524612e-001
      5.5563624209321219e-002 6.1917659379054879e-001
      -8.6048755925608747e-002 -1.9754969811927842e-002
      2.5030485101067756e-001 2.8798513231870385e-002
      -2.2170624886220058e-001 -3.7704427059192823e-002
      3.4102376468279477e-001 -1.6911433419936803e-001
      -2.3471377256054313e-001 -2.9089865937849307e-001
      1.4855406181003905e-001 -2.6646808717058779e-001
      -4.8512300721158530e-002 8.0333058555600110e-003
      4.9536990422696031e-001 -8.1225324761450418e-002
      -6.9318764142080852e-002 -1.7920891228443578e-001
      1.0028425232215966e-002 8.7593471976786949e-002
      1.1560034869188572e-001 -6.3769272788868556e-003
      -1.7761629465068249e-001 6.7449679448792621e-001
      1.6856327820906952e-001 1.6993250704254620e-001
      3.3545665307286726e-003 -5.4552134591084867e-001
      -2.0938388485268780e-001 -1.0870914056402066e-001
      1.9867140400906563e-001 -1.6521341538720099e-003
      3.4985259824336958e-002 -1.3046569263487695e-001
      -2.4056979357486488e-001 1.2563413072335058e-001
      -1.6859442051473736e+000 3.2565257115074187e-002
      8.6071889356924766e-002 -3.5782241879766025e-001
      3.7220941327854730e-002 -2.3357421369591139e-001
      -2.9056628596115858e-001 1.4862297586587179e+000
      -1.8588131697667287e-001 -1.5431399971236401e-001
      -4.7790874977247447e-002 3.6649897026154016e-001
      -2.9280024035676983e-001 -6.2326115605325927e-001
      6.8803157933778247e-001 -1.3541466203300948e-001
      1.4524186649205988e+000 2.5626598129426640e-002
      -3.8834137323972517e-001 2.6862727507985484e-001
      1.5538954138448460e-001 -3.0851421099417804e-002
      8.3639660547527328e-001 2.0603554627296201e-002
      -1.3215845437049016e+000 1.9895263489091020e+000
      2.9045328578492979e-001 1.1891811404316147e-001
      -3.9587149624173623e-001 -2.4517903731607629e-001
      9.7970630637039285e-002 6.8626375152551281e-002
      -1.4599546544513378e-001 -1.7581868403973838e-001
      1.4702834523233432e-001 -7.7294228227076767e-002
      1.4030917045760369e-001 -1.0718827489398647e-002
      -6.9292324219138113e-002 1.1999438277920037e-001
      -2.2402270163721929e+000 1.3372667422165535e-001
      2.8431200211502639e-001 -1.8582211100405157e+000
      -5.4143662691698305e-002 -6.9492758998771914e-002
      -9.4360511927037605e-001 -6.2301319980315117e-001
      -8.9290981638714975e-002 1.0754992140515976e-001
      -1.2297712384196959e-001 1.7464593750557725e-001
      -3.1130150229104703e-001 2.5258316657473423e-001
      2.1174966925517231e+000 -7.5646314179709335e-003
      1.6600986813709215e+000 -4.2868977141405154e-002
      1.6273958627363048e-002 5.8808729692947245e-002
      1.5665299050493961e-001 -5.4760137450200946e-002
      1.1892973469780788e+000 4.0196775828381437e-002
      -3.2117842544939199e+000 1.3976200637049210e+000
      2.7862974869384011e-001 -3.0365704041367562e-002
      -1.8413713367899628e-001 -6.5474847101701011e-002
      2.4376929846874615e-001 3.5300248505395773e-002
      -1.6260939264935617e-001 -8.6927796022880544e-001
      3.4850312134069100e-001 -4.7398775747922658e-002
      1.2640934566114179e-003 8.4487113821119550e-002
      -2.3332301036425470e-002 -4.3522848225311189e-002
      -8.1455517740405126e-001 -3.3056591232968002e-001
      -2.2825165769725229e-002 -3.9187117735176427e-002
      -6.5567999091565840e-002 -1.0780834070854606e-001
      -2.0789264917516864e-001 1.2538433610220961e-001
      -4.6661465360842633e-002 -8.7137484983076455e-002
      -1.1972094190642939e-001 -8.7492699415240072e-002
      -2.2650917955167191e-001 -1.6941775510153914e-001
      -8.5938918478979859e-002 1.0661472782696607e-001
      1.5327911725597335e-001 -8.3397786970286922e-002
      -2.6360399237362032e-002 -1.9792116329583054e-001
      -1.3765221589285660e-002 -6.8440063666087000e-002
      -5.3389610846888175e-002 -6.8015393293094917e-002
      -4.5678843904670763e-001 -3.9184320511042381e-001
      7.8325820444737862e-002 7.7591489953781567e-002
      2.1378671606018854e-001 -4.7787188012782686e-002
      -2.6836304568092256e-001 -6.6335449058386411e-002
      -1.9921987211945248e-002 -1.3468647255045221e-001
      -1.0409994421889901e-001 -1.4139147265850421e-001
      -5.2181937589420482e-002 -3.4006697318531960e-002
      7.1087505327752473e-002 -1.7392734429747484e-002
      9.0743367002311315e-001 -2.2862759224043898e-002
      1.4908718589991388e-001 -1.3821511895914038e-001
      -3.7034367786129348e-002 -1.8867475900456149e-002
      -2.5758871225709218e-001 -1.8207042595600388e-002
      -4.6924732047660916e-001 -1.7485469914209354e-002
      1.2528935921001683e-001 -3.8138908524490173e-002
      6.4909832084725216e-001 -3.0339847142475040e-001
      4.2851226353867244e-001 -5.9226870880058978e-002
      4.8196305216785829e-001 -8.4428583456697230e-003
      -5.4385373731026532e-001 -6.4885783928120902e-002
      1.6282117231840414e-002 2.8714457647637699e-002
      5.3073592900082578e-001 -2.6359435801177528e-001
      9.0537322679219212e-002 3.8826134137957358e-001
      -1.4927119495733959e-001 9.1347937011736824e-002
      1.2086028031978309e-002 4.3756367268040733e-002
      1.1269181255200406e-001 3.9891297726624024e-002
      1.8182820625238277e-001 -1.7583698376959597e-001
      7.0152989327427939e-001 -6.6693925466982620e-002
      1.5431496072338119e-002 -1.2347441480570397e-001
      3.4281513455225461e-002 5.7008281469954633e-003
      4.4180304451296670e-002 -1.7511853112497494e-001
      -6.4215333764902266e-002 3.8529362020050834e-001
      -1.7337605183680938e-001 2.0819445377241649e-001
      -5.4781944255894874e-002 -5.6835528068681584e-002
      -7.6288689564166609e-002 -2.7178646418765001e-001
      -4.9760031974424850e-002 -1.1305444043279307e-001
      7.9623890180059415e-002 2.1826736811009682e-002
      2.8658127975094727e-001 8.6945391621121790e-002
      -3.8068230119936972e-002 6.8388650981153820e-002
      -1.8322287521629826e-001 2.3254546992746275e-001
      9.9260916701434332e-002 3.5518447288791890e-003
      -6.7294626496992860e-002 -2.5925006716438992e-001
      2.0511932015664214e-001 -1.2638858979960618e-001
      -1.5384291915951406e-001 2.4280992607125193e-003
      -9.7502894124135195e-002 -1.7077558083763963e-001
      -4.9498818080601983e-002 7.4971167681924064e-002
      1.9129520790903415e-001 -1.6760334780166830e-001
      2.0591155487226129e-001 -1.4232184567193304e-001
      6.4443608548163268e-003 2.1846767915806903e-001
      -1.0311918200699932e-002 2.5297061641825097e-001
      4.5994585826088834e-002 -2.7811463718425211e-001
      4.4568579550686266e-001 1.8402165533184883e-002
      -6.1290115590474603e-001 1.8855176097359261e-001
      -3.6493601824266902e-001 9.8122900466740437e-002
      2.8890516169495023e-001 1.8702792111672850e-001
      7.0183554550977897e-002 -1.1710334256659739e-001
      1.6738843184384555e-001 3.4952716267936440e-001
      1.5227049337840004e-001 -2.8306758110434244e-001
      8.7983240883038424e-002 -1.4001878367661655e-001
      -3.3461906343010043e-003 2.6053662894392554e-001
      1.0414886378598323e-001 6.6397100813493891e-003
      -1.0764286106889583e-001 6.5031027218767287e-006
      3.1713365199692356e-001 -7.4395473789419420e-001
      2.8720031975895739e-002 -2.7611445508921931e-002
      -1.0625854319152542e-001 -1.3114538255122113e-001
      -3.4251821508573504e-001 8.3242126325708077e-001
      2.3554012719318501e-001 -3.5499964353099900e-001
      2.8036849262326269e-001 -1.8597481999717860e-001
      7.4621029389138449e-001 8.6669596395618498e-001
      -3.5812815093831335e-001 -5.3332073182806208e-002
      -4.3921818953853095e-002 9.1101842349150863e-002
      -7.5389828078851279e-002 4.7425797064245247e-002
      -7.6753174591190090e-002 1.9829621796555269e-001
      1.6600393050226364e-001 1.5335445691400534e-001
      6.0910295214029919e-001 2.9836474110551803e-001
      1.1444966101764131e-003 2.9698961245066859e-002
      -4.9152111439286529e-002 -2.9897852542437472e-002
      -3.5491041070518486e-001 5.3442751087591878e-001
      -2.1530071802624468e-002 -8.7261248991040249e-002
      3.4328780023043015e-001 8.7880682907735791e-002
      3.2051145561901813e-002 -1.7747154106702204e-001
      2.2055931487955530e-001 1.5205740975898013e-001
      -1.1225589824359642e-002 2.2627245309953317e-001
      6.4232682417215037e-001 -3.2775311491721215e-001
      1.3833746778784031e-001 -1.6318201173042141e-001
      -1.5783967584759800e-001 -2.0797379043853176e-001
      1.0235355154938669e-001 -3.3499061401624275e-001
      1.2434623387305720e-001 -1.4883405282773451e-001
      6.4745616894067659e-002 8.6279241159499587e-001
      -6.6179696037301550e-001 -2.0439860746041891e-001
      2.3421772210044736e-002 5.2440796956787317e-001
      -1.8454024501546887e-001 -7.2626842236894917e-002
      1.4319155616817655e-001 -1.2416322618427265e-002
      3.5459865900194959e-001 -1.5648945434559203e-001
      -5.2456586418798890e-001 7.3299762340561325e-001
      7.5003618434637798e-001 1.3883776594369854e-001
      -3.9764458110070255e-001 -4.3642023620757792e-001
      7.4545270688881349e-001 -1.4648175177552047e-001
      -7.2026714532391886e-002 -1.5047131790586452e-001
      4.6893056044874606e-002 -2.6663192002560304e-001
      4.8093315118185753e-001 -1.5164910035720200e-001
      4.6419757098620495e-001 -9.9936944370701358e-002
      9.8039850430426692e-002 1.3168063786092027e-001
      -2.5290603644138154e-002 2.7419244711109181e-001
      6.2650146938803886e-002 -1.1315526740676246e-001
      5.1825494420790508e-001 -8.8487649465363716e-001
      1.2849036718714812e-001 4.8140274682823958e-001
      5.5406813071019849e-002 4.0909453917459586e-002
      2.4556346290063680e-001 -2.9140432637441688e-001
      1.5475190397043724e-002 1.4811072085271579e-001
      3.0339678883400584e-001 -1.1199239333633287e-001
      2.7702465532190168e-001 -1.6751177392779970e-001
      -3.4016371896149467e-001 -1.0200102371830026e-001
      1.2063147608102407e+000 -1.7594719191218738e-001
      6.0242828034401577e-002 4.1848306362922710e-001
      1.1936060434028835e+000 8.2409699786244572e-002
      -1.1795147708521861e-001 -6.0943543413624823e-001
      -4.9822115253945351e-002 -1.0587352061755422e+000
      -4.3241372071378334e-002 -2.0572455086945739e-002
      6.5032154495602612e-001 -1.6475863178542483e-001
      9.0189779867885130e-003 3.0380835943294315e-001
      -2.4331638375306827e-001 -9.1570170132778239e-001
      -1.0189240624571753e-001 -1.3891844725413263e-001
      -9.4773696995815754e-002 2.0318861643495367e+000
      1.7436389517220316e-001 -7.7032067566011317e-002
      9.2318311964964973e-003 -6.1776305050001257e-001
      6.4755579660558571e-001 -4.2956034220086300e-002
      -2.3107197458021764e-001 3.2070981259544468e-001
      2.4678186630827190e-001 1.8448028812033654e-001
      1.4514713463220311e-001 -1.7220629022023581e-001
      3.5853013568532439e-002 4.7204526327754584e-002
      -4.2459891544487294e-001 3.3957289599913600e-002
      -7.7707581506986589e-001 9.2878919148858333e-002
      8.5443430400061485e-002 2.3338111782808249e-003
      -3.1282814473397136e-001 4.3662361094747804e-002
      8.9961833727257567e-001 -1.1804670094194337e-001
      1.3699227497425324e-002 -3.1388144242101473e-001
      8.0519709164012507e-002 -2.8992673724310403e-001
      -9.5402090227071601e-001 3.8309743215490588e-001
      2.8206816000427820e-001 4.6341416764572249e-002
      5.5421466731618983e-002 4.3793065526712949e-001
      1.0117376413276376e-001 -2.7526205568312112e-001
      -3.8286259503609255e-002 -8.7848728687477465e-002
      -1.0924841261308745e-002 1.1632943167814229e+000
      -2.3410000891204696e-001 -4.9877264065618310e-001
      -2.8062240328939408e-001 7.6837562178925622e-002
      -2.3362483029319597e-001 9.8471400759939182e-002
      -1.7474933625714059e-001 -1.7166540191940438e-001
      1.5321726695474880e-001 1.7700490058373367e-001
      1.2943926609541670e-002 5.4033937032587145e-002
      -3.1365828399828963e+000 1.4300104111719272e-001
      9.5994050267929190e-002 -1.8952308355710257e+000
      8.7716490879747276e-003 2.9177019620411943e-002
      -6.7485203834430041e-001 -1.2047952060069068e-001
      -4.2464567649801260e-001 9.7464049287331975e-002
      4.4820718604657431e-002 4.4008730915304112e-001
      -2.8752805548875920e-001 -3.1178949031139686e-001
      7.3723896824636814e-001 -1.7996777395799857e-002
      1.4548752332072723e+000 5.2083773501103228e-002
      -5.3916965321179544e-001 7.0080563773823407e-002
      9.0080528137509208e-001 -3.2058472170353687e-002
      4.6965324373858469e-001 -1.1839485942498601e-001
      -5.4243599055384328e-001 6.2063188120680934e-001
      2.8415670111865565e-001 2.3175919115042165e-001
      -2.4023274784465606e-001 3.8684307336789903e-001
      -3.2365665977670918e-002 1.0223196538477677e-001
      9.5841938656095860e-001 -9.4417543715789432e-001
      -1.6747219441266267e-001 -3.3557458396506534e-002
      -1.3153232177685814e-001 7.6099063058413172e-002
      -6.6409755918391739e-002 -1.4398468277544496e-001
      -6.5757018593991134e-001 1.2278988442991606e-001
      2.9218388911320348e-001 -1.4886449695896706e+000
      -1.2156977746421989e-001 -1.1051783347313923e-001
      -7.3504369531633262e-001 4.1862191634127750e-002
      3.3346497850784673e-001 -7.5076264154541938e-002
      -2.6328971867010158e-002 2.7219756924856259e-001
      -2.8031520918204744e-001 -3.5441221116309152e-001
      2.3857661047516429e-001 -9.7926009434025959e-003
      3.9608700484742027e-001 -7.7175224863015781e-003
      -4.2951239948625036e-001 -6.9471126115633247e-002
      -1.1335133191225888e-001 -9.8483374577742339e-003
      1.3968148387927770e+000 1.6893938332776046e-001
      -4.0416579663324850e+000 2.2004472445834198e+000
      2.2109217631069958e-001 -7.7618573329985728e-003
      -3.6955949762147766e-001 -1.9222832385226746e-001
      8.9297547869077898e-002 -5.0159254066888120e-002
      -1.4365429445970687e-001 -3.9211043860439976e-001
      3.2895878918034853e-004 -9.0601041890339129e-002
      5.8417902545477379e-002 1.6721051707094835e-002
      1.3398673495665453e-001 -4.4657148624990886e-002
      -1.8757779469335889e-001 -5.1874147367330800e-002
      2.1858453307862274e-001 -1.7990863535153809e-001
      8.7406151459481052e-002 -1.0799236048246895e-001
      -4.6837897398168349e-001 2.0377432976357476e-001
      2.4848073448036259e-001 9.0713633310912062e-002
      -2.9950015983757444e-001 2.1874363068306024e-001
      5.3840823949020317e-002 3.0633336770004224e-002
      1.5797303928343664e-002 -7.9174307915709188e-002
      1.9112444778232562e-001 -1.5554175552055102e-001
      -1.2032903255562287e-001 -2.6164526974700546e-002
      1.3232697571705126e-002 -1.0986090546146403e-001
      2.5679312000245685e-001 8.3244336041893782e-002
      1.1762210851710767e-002 -1.0290448268188482e-001
      -7.1999310047061130e-002 2.1785474524917200e-001
      2.7553931824928735e-001 -7.9824708697313451e-002
      2.1061713843954186e-001 -1.1543006236181763e-001
      -1.7224118538557381e-001 2.2388591954986695e-001
      -1.5340178846826875e-002 1.1202355337547362e-002
      -3.5832804619814237e-002 -5.1635231390018625e-002
      -7.6865446197685067e-002 5.1923123040188139e-002
      -1.7353044239329685e-001 -1.2317161436419331e-002
      1.4924874356263343e-001 -5.9926107384009823e-002
      8.5330712406883353e-003 2.5339827888008004e-001
      -2.2966294041033572e-001 -1.1031608902810516e-001
      -2.0640924974554484e-001 -1.1402644286531857e-001
      -4.2301772083578340e-002 1.7098389245963261e-001
      6.5090898963815802e-001 -1.2390238175338655e+000
      1.5151763834779988e-001 -1.9047458802582581e-001
      2.4872764359145602e-001 1.4230246808170225e-002
      -5.6088831514600213e-001 -5.8238872500164657e-003
      1.7060336378824026e-001 2.0254237511106390e-001
      7.4667495910646631e-001 -9.3288772432959133e-002
      -1.2462784655137592e-001 3.8092147404568172e-001
      -1.8017117212991662e-001 5.3918057490584578e-002
      -1.6002425226575790e-002 2.3238730602773741e-001
      -3.2985636319331914e-002 -4.5223767865815567e-001
      3.7022483113129551e-001 -4.5951438655433462e-002
      7.4093524467564553e-001 -8.6611538499653043e-002
      8.9442805794817497e-005 -1.0296143882005983e-001
      -1.4465652576863519e-002 -1.7212106998704600e-002
      -2.5887695558648109e-002 -1.9702956777816233e-001
      7.5788327489761567e-002 3.6927353318571338e-001
      -1.8119639713658817e-001 2.2468202402765239e-001
      -1.1159689283722574e-002 -5.8572851965223077e-002
      -7.8913606313631909e-002 -1.2630958295255107e-001
      -8.0844756469347967e-002 -1.0917722063843957e-001
      7.8037616377748600e-002 3.2176093608230115e-002
      3.0694110982071060e-001 2.8276031290286684e-002
      1.5203986219833171e-003 1.9943441594972866e-001
      -1.2473850196216320e-001 2.0826668308379295e-001
      1.3141854548892323e-001 -1.1657957781953515e-001
      -5.0695926703052209e-002 -3.2781785754364601e-001
      5.8777830750641658e-001 -1.2084756660369485e-001
      -1.0257167766412338e-001 1.1337174792564506e-002
      -1.1255012954258592e-001 -1.4610783534060137e-001
      -4.6841004042681066e-002 -1.0767931577931884e-001
      1.7666739370285864e-001 -7.3254083659663072e-002
      9.9525335084289554e-002 -1.8887034022261853e-001
      2.6228460440654711e-001 1.4918919271828809e-001
      -2.4965229658032068e-002 2.1857906317011599e-001
      1.8374721048744472e-001 -4.5992572005192262e-001
      -1.9673028798413299e-002 2.2409103019219386e-002
      -3.1106914279399345e-001 -5.0984955176713961e-002
      4.9132149217211714e-002 -1.8781654768384418e-001
      1.1153827215318382e-001 2.6627445721812870e-001
      -1.6596937181725925e-002 1.3468638006337308e-001
      7.8294368326301211e-002 1.5874121577701741e-001
      1.6812998386123820e-001 -6.9067721542056051e-002
      2.9067262819055872e-001 6.8958672677960270e-002
      -4.1453852631250523e-002 6.8262182280594358e-002
      1.1151755338181917e+000 -6.8344379832825028e-003
      -3.6084760504852417e-002 1.2078432407419004e-001
      2.2973972299330944e-002 -2.4775658198587056e-001
      2.6070382283342020e-002 1.9954672088235731e-002
      -2.1177078671438876e-001 9.7563931502239687e-002
      -3.5867070850594884e-001 5.0455308991879255e-001
      -2.0231262300074659e-001 5.7089648360275802e-002
      7.7762378447598923e-003 -1.9947875540349586e-001
      5.3760518021329584e-001 4.0750520439869137e-001
      4.8598984529168105e-003 -2.4114416188292853e-002
      7.7568469745993643e-002 2.6631928630788232e-001
      6.1584863387503752e-001 -1.7148412609162364e-001
      6.5148582081519624e-001 1.2457155922806473e-001
      1.2263170739104973e-001 -8.9296220686505764e-002
      1.1938096936344176e+000 1.6464083139261310e-001
      4.6970663534659896e-001 1.3437600887731893e-001
      -6.2062221168057485e-002 -1.6979099825795430e-001
      8.7981693016562071e-002 2.9077658568411358e-001
      -1.9294022950584288e-003 -5.1436976092369679e-001
      2.3531374056090415e-001 8.1368434726239239e-002
      1.9004634697253697e-001 -3.0531341910509496e-001
      9.4977418304910632e-002 8.8196769807674436e-002
      1.8180327182685113e-001 2.8141922637259422e-002
      1.5844224611240714e+000 3.3465983723036230e-001
      -8.8355112867893534e-002 -1.1643752578269796e-001
      1.7544572846824752e-001 2.7978989620186195e-001
      8.9277717725889272e-002 -9.0145959642460624e-002
      -1.2879901376434380e-001 6.6320344242835283e-002
      4.1468086650463656e-002 7.2863296553029944e-001
      -6.0956154140493751e-003 3.0859565196671921e-004
      1.1550446745404201e-001 2.0833576302707161e-002
      -1.5188759215192227e-001 -1.5563858082455787e-001
      -4.5106041313500589e-001 -9.1890869617623161e-002
      -8.4357651822899904e-001 -1.8313141390288504e-001
      -5.7074973435659404e-001 8.7201113538720440e-002
      7.8593206380504266e-001 1.3207022002453817e-001
      -2.2056797573365627e-001 -3.8298422118245553e-003
      6.8291447692628782e-001 2.8687463081726744e-001
      1.4366107555091091e-002 1.9823969541645084e-001
      4.3079196987770782e-002 -3.5881700670203298e-002
      -7.2144735649439962e-001 -4.6375022203225341e-001
      2.5806752510356656e-001 1.1344847814344444e-001
      1.1541539646686313e-001 6.9008152911462964e-002
      5.9305868650146469e-002 4.2762642396611740e-002
      1.9913869440751997e-001 3.9984628409029382e-001
      7.1294344380513866e-002 -7.0871312278906484e-001
      3.9297013986716617e-001 -1.8388454091956741e-001
      5.1698773669857569e-002 -6.5714670657844559e-002
      3.4174473820331974e-001 1.3751227221544496e-001
      2.9163192659728004e-001 1.2886726488323816e-001
      -2.6837437413291278e-002 6.3217684756877203e-004
      -1.2195009565906003e+000 6.3324039208667096e-002
